digraph Tree {
node [shape=box, fontname="helvetica"] ;
edge [fontname="helvetica"] ;
0 [label="x[3] <= 99.536\ngini = 0.853\nsamples = 20758\nvalue = [2523.0, 3082.0, 2427.0, 2522.0, 2910.0, 3248.0, 4046.0]"] ;
1 [label="x[3] <= 76.041\ngini = 0.799\nsamples = 12694\nvalue = [2522, 3082, 2427, 2502, 2085, 69, 7]"] ;
0 -> 1 [labeldistance=2.5, labelangle=45, headlabel="True"] ;
2 [label="x[3] <= 54.999\ngini = 0.676\nsamples = 7473\nvalue = [2520, 3000, 1637, 259, 53, 0, 4]"] ;
1 -> 2 ;
3 [label="x[2] <= 1.64\ngini = 0.373\nsamples = 2735\nvalue = [2068, 643, 20, 0, 3, 0, 1]"] ;
2 -> 3 ;
4 [label="x[3] <= 46.828\ngini = 0.495\nsamples = 1431\nvalue = [837, 577, 15, 0, 1, 0, 1]"] ;
3 -> 4 ;
5 [label="x[3] <= 44.931\ngini = 0.217\nsamples = 808\nvalue = [709, 92, 5, 0, 1, 0, 1]"] ;
4 -> 5 ;
6 [label="x[8] <= 0.5\ngini = 0.07\nsamples = 529\nvalue = [510, 14, 3, 0, 1, 0, 1]"] ;
5 -> 6 ;
7 [label="x[1] <= 22.0\ngini = 0.444\nsamples = 3\nvalue = [1, 2, 0, 0, 0, 0, 0]"] ;
6 -> 7 ;
8 [label="gini = 0.0\nsamples = 2\nvalue = [0, 2, 0, 0, 0, 0, 0]"] ;
7 -> 8 ;
9 [label="gini = 0.0\nsamples = 1\nvalue = [1, 0, 0, 0, 0, 0, 0]"] ;
7 -> 9 ;
10 [label="x[6] <= 2.045\ngini = 0.063\nsamples = 526\nvalue = [509, 12, 3, 0, 1, 0, 1]"] ;
6 -> 10 ;
11 [label="x[7] <= 1.038\ngini = 0.228\nsamples = 87\nvalue = [76, 8, 2, 0, 1, 0, 0]"] ;
10 -> 11 ;
12 [label="x[2] <= 1.59\ngini = 0.416\nsamples = 42\nvalue = [31, 8, 2, 0, 1, 0, 0]"] ;
11 -> 12 ;
13 [label="gini = 0.356\nsamples = 38\nvalue = [30, 5, 2, 0, 1, 0, 0]"] ;
12 -> 13 ;
14 [label="gini = 0.375\nsamples = 4\nvalue = [1, 3, 0, 0, 0, 0, 0]"] ;
12 -> 14 ;
15 [label="gini = 0.0\nsamples = 45\nvalue = [45, 0, 0, 0, 0, 0, 0]"] ;
11 -> 15 ;
16 [label="x[2] <= 1.505\ngini = 0.027\nsamples = 439\nvalue = [433, 4, 1, 0, 0, 0, 1]"] ;
10 -> 16 ;
17 [label="x[15] <= 3.0\ngini = 0.231\nsamples = 15\nvalue = [13, 2, 0, 0, 0, 0, 0]"] ;
16 -> 17 ;
18 [label="gini = 0.133\nsamples = 14\nvalue = [13, 1, 0, 0, 0, 0, 0]"] ;
17 -> 18 ;
19 [label="gini = 0.0\nsamples = 1\nvalue = [0, 1, 0, 0, 0, 0, 0]"] ;
17 -> 19 ;
20 [label="x[4] <= 0.5\ngini = 0.019\nsamples = 424\nvalue = [420, 2, 1, 0, 0, 0, 1]"] ;
16 -> 20 ;
21 [label="gini = 0.01\nsamples = 398\nvalue = [396, 1, 1, 0, 0, 0, 0]"] ;
20 -> 21 ;
22 [label="gini = 0.145\nsamples = 26\nvalue = [24, 1, 0, 0, 0, 0, 1]"] ;
20 -> 22 ;
23 [label="x[2] <= 1.56\ngini = 0.413\nsamples = 279\nvalue = [199.0, 78.0, 2.0, 0.0, 0.0, 0.0, 0.0]"] ;
5 -> 23 ;
24 [label="x[6] <= 2.5\ngini = 0.501\nsamples = 77\nvalue = [32, 44, 1, 0, 0, 0, 0]"] ;
23 -> 24 ;
25 [label="x[4] <= 0.5\ngini = 0.42\nsamples = 32\nvalue = [8, 23, 1, 0, 0, 0, 0]"] ;
24 -> 25 ;
26 [label="x[6] <= 1.5\ngini = 0.486\nsamples = 25\nvalue = [8, 16, 1, 0, 0, 0, 0]"] ;
25 -> 26 ;
27 [label="gini = 0.0\nsamples = 1\nvalue = [1, 0, 0, 0, 0, 0, 0]"] ;
26 -> 27 ;
28 [label="gini = 0.469\nsamples = 24\nvalue = [7, 16, 1, 0, 0, 0, 0]"] ;
26 -> 28 ;
29 [label="gini = 0.0\nsamples = 7\nvalue = [0, 7, 0, 0, 0, 0, 0]"] ;
25 -> 29 ;
30 [label="x[8] <= 1.5\ngini = 0.498\nsamples = 45\nvalue = [24, 21, 0, 0, 0, 0, 0]"] ;
24 -> 30 ;
31 [label="x[13] <= 1.5\ngini = 0.483\nsamples = 27\nvalue = [11, 16, 0, 0, 0, 0, 0]"] ;
30 -> 31 ;
32 [label="gini = 0.423\nsamples = 23\nvalue = [7, 16, 0, 0, 0, 0, 0]"] ;
31 -> 32 ;
33 [label="gini = 0.0\nsamples = 4\nvalue = [4, 0, 0, 0, 0, 0, 0]"] ;
31 -> 33 ;
34 [label="x[13] <= 0.815\ngini = 0.401\nsamples = 18\nvalue = [13, 5, 0, 0, 0, 0, 0]"] ;
30 -> 34 ;
35 [label="gini = 0.142\nsamples = 13\nvalue = [12, 1, 0, 0, 0, 0, 0]"] ;
34 -> 35 ;
36 [label="gini = 0.32\nsamples = 5\nvalue = [1, 4, 0, 0, 0, 0, 0]"] ;
34 -> 36 ;
37 [label="x[1] <= 23.893\ngini = 0.288\nsamples = 202\nvalue = [167, 34, 1, 0, 0, 0, 0]"] ;
23 -> 37 ;
38 [label="x[2] <= 1.6\ngini = 0.257\nsamples = 193\nvalue = [164.0, 28.0, 1.0, 0.0, 0.0, 0.0, 0.0]"] ;
37 -> 38 ;
39 [label="x[11] <= 0.5\ngini = 0.372\nsamples = 103\nvalue = [78.0, 24.0, 1.0, 0.0, 0.0, 0.0, 0.0]"] ;
38 -> 39 ;
40 [label="gini = 0.444\nsamples = 66\nvalue = [44, 22, 0, 0, 0, 0, 0]"] ;
39 -> 40 ;
41 [label="gini = 0.152\nsamples = 37\nvalue = [34, 2, 1, 0, 0, 0, 0]"] ;
39 -> 41 ;
42 [label="x[1] <= 21.765\ngini = 0.085\nsamples = 90\nvalue = [86, 4, 0, 0, 0, 0, 0]"] ;
38 -> 42 ;
43 [label="gini = 0.024\nsamples = 82\nvalue = [81, 1, 0, 0, 0, 0, 0]"] ;
42 -> 43 ;
44 [label="gini = 0.469\nsamples = 8\nvalue = [5, 3, 0, 0, 0, 0, 0]"] ;
42 -> 44 ;
45 [label="x[1] <= 25.5\ngini = 0.444\nsamples = 9\nvalue = [3, 6, 0, 0, 0, 0, 0]"] ;
37 -> 45 ;
46 [label="gini = 0.0\nsamples = 3\nvalue = [0, 3, 0, 0, 0, 0, 0]"] ;
45 -> 46 ;
47 [label="x[12] <= 0.5\ngini = 0.5\nsamples = 6\nvalue = [3, 3, 0, 0, 0, 0, 0]"] ;
45 -> 47 ;
48 [label="gini = 0.0\nsamples = 2\nvalue = [2, 0, 0, 0, 0, 0, 0]"] ;
47 -> 48 ;
49 [label="gini = 0.375\nsamples = 4\nvalue = [1, 3, 0, 0, 0, 0, 0]"] ;
47 -> 49 ;
50 [label="x[7] <= 3.066\ngini = 0.351\nsamples = 623\nvalue = [128.0, 485.0, 10.0, 0.0, 0.0, 0.0, 0.0]"] ;
4 -> 50 ;
51 [label="x[3] <= 49.92\ngini = 0.296\nsamples = 544\nvalue = [87, 448, 9, 0, 0, 0, 0]"] ;
50 -> 51 ;
52 [label="x[3] <= 48.5\ngini = 0.431\nsamples = 156\nvalue = [49, 107, 0, 0, 0, 0, 0]"] ;
51 -> 52 ;
53 [label="x[13] <= 1.143\ngini = 0.058\nsamples = 67\nvalue = [2, 65, 0, 0, 0, 0, 0]"] ;
52 -> 53 ;
54 [label="gini = 0.0\nsamples = 58\nvalue = [0, 58, 0, 0, 0, 0, 0]"] ;
53 -> 54 ;
55 [label="x[3] <= 47.562\ngini = 0.346\nsamples = 9\nvalue = [2, 7, 0, 0, 0, 0, 0]"] ;
53 -> 55 ;
56 [label="gini = 0.0\nsamples = 2\nvalue = [2, 0, 0, 0, 0, 0, 0]"] ;
55 -> 56 ;
57 [label="gini = 0.0\nsamples = 7\nvalue = [0, 7, 0, 0, 0, 0, 0]"] ;
55 -> 57 ;
58 [label="x[2] <= 1.603\ngini = 0.498\nsamples = 89\nvalue = [47.0, 42.0, 0.0, 0.0, 0.0, 0.0, 0.0]"] ;
52 -> 58 ;
59 [label="x[6] <= 2.002\ngini = 0.478\nsamples = 66\nvalue = [26, 40, 0, 0, 0, 0, 0]"] ;
58 -> 59 ;
60 [label="gini = 0.405\nsamples = 46\nvalue = [13.0, 33.0, 0.0, 0.0, 0.0, 0.0, 0.0]"] ;
59 -> 60 ;
61 [label="gini = 0.455\nsamples = 20\nvalue = [13, 7, 0, 0, 0, 0, 0]"] ;
59 -> 61 ;
62 [label="x[1] <= 25.0\ngini = 0.159\nsamples = 23\nvalue = [21, 2, 0, 0, 0, 0, 0]"] ;
58 -> 62 ;
63 [label="gini = 0.087\nsamples = 22\nvalue = [21, 1, 0, 0, 0, 0, 0]"] ;
62 -> 63 ;
64 [label="gini = 0.0\nsamples = 1\nvalue = [0, 1, 0, 0, 0, 0, 0]"] ;
62 -> 64 ;
65 [label="x[13] <= 1.029\ngini = 0.217\nsamples = 388\nvalue = [38, 341, 9, 0, 0, 0, 0]"] ;
51 -> 65 ;
66 [label="x[3] <= 54.668\ngini = 0.168\nsamples = 330\nvalue = [24, 300, 6, 0, 0, 0, 0]"] ;
65 -> 66 ;
67 [label="x[8] <= 1.5\ngini = 0.159\nsamples = 328\nvalue = [22, 300, 6, 0, 0, 0, 0]"] ;
66 -> 67 ;
68 [label="gini = 0.114\nsamples = 235\nvalue = [8, 221, 6, 0, 0, 0, 0]"] ;
67 -> 68 ;
69 [label="gini = 0.256\nsamples = 93\nvalue = [14, 79, 0, 0, 0, 0, 0]"] ;
67 -> 69 ;
70 [label="gini = 0.0\nsamples = 2\nvalue = [2, 0, 0, 0, 0, 0, 0]"] ;
66 -> 70 ;
71 [label="x[13] <= 1.88\ngini = 0.439\nsamples = 58\nvalue = [14, 41, 3, 0, 0, 0, 0]"] ;
65 -> 71 ;
72 [label="x[8] <= 0.5\ngini = 0.32\nsamples = 5\nvalue = [4, 0, 1, 0, 0, 0, 0]"] ;
71 -> 72 ;
73 [label="gini = 0.0\nsamples = 1\nvalue = [0, 0, 1, 0, 0, 0, 0]"] ;
72 -> 73 ;
74 [label="gini = 0.0\nsamples = 4\nvalue = [4, 0, 0, 0, 0, 0, 0]"] ;
72 -> 74 ;
75 [label="x[1] <= 18.5\ngini = 0.365\nsamples = 53\nvalue = [10, 41, 2, 0, 0, 0, 0]"] ;
71 -> 75 ;
76 [label="gini = 0.461\nsamples = 25\nvalue = [9, 16, 0, 0, 0, 0, 0]"] ;
75 -> 76 ;
77 [label="gini = 0.196\nsamples = 28\nvalue = [1, 25, 2, 0, 0, 0, 0]"] ;
75 -> 77 ;
78 [label="x[7] <= 3.952\ngini = 0.511\nsamples = 79\nvalue = [41, 37, 1, 0, 0, 0, 0]"] ;
50 -> 78 ;
79 [label="x[13] <= 0.189\ngini = 0.111\nsamples = 17\nvalue = [16, 1, 0, 0, 0, 0, 0]"] ;
78 -> 79 ;
80 [label="gini = 0.0\nsamples = 1\nvalue = [0, 1, 0, 0, 0, 0, 0]"] ;
79 -> 80 ;
81 [label="gini = 0.0\nsamples = 16\nvalue = [16, 0, 0, 0, 0, 0, 0]"] ;
79 -> 81 ;
82 [label="x[2] <= 1.625\ngini = 0.5\nsamples = 62\nvalue = [25, 36, 1, 0, 0, 0, 0]"] ;
78 -> 82 ;
83 [label="x[5] <= 0.5\ngini = 0.461\nsamples = 53\nvalue = [17, 35, 1, 0, 0, 0, 0]"] ;
82 -> 83 ;
84 [label="x[12] <= 1.0\ngini = 0.245\nsamples = 7\nvalue = [6, 1, 0, 0, 0, 0, 0]"] ;
83 -> 84 ;
85 [label="gini = 0.0\nsamples = 1\nvalue = [0, 1, 0, 0, 0, 0, 0]"] ;
84 -> 85 ;
86 [label="gini = 0.0\nsamples = 6\nvalue = [6, 0, 0, 0, 0, 0, 0]"] ;
84 -> 86 ;
87 [label="x[1] <= 17.5\ngini = 0.396\nsamples = 46\nvalue = [11, 34, 1, 0, 0, 0, 0]"] ;
83 -> 87 ;
88 [label="gini = 0.444\nsamples = 6\nvalue = [4, 2, 0, 0, 0, 0, 0]"] ;
87 -> 88 ;
89 [label="gini = 0.329\nsamples = 40\nvalue = [7, 32, 1, 0, 0, 0, 0]"] ;
87 -> 89 ;
90 [label="x[8] <= 1.5\ngini = 0.198\nsamples = 9\nvalue = [8, 1, 0, 0, 0, 0, 0]"] ;
82 -> 90 ;
91 [label="x[12] <= 1.5\ngini = 0.444\nsamples = 3\nvalue = [2, 1, 0, 0, 0, 0, 0]"] ;
90 -> 91 ;
92 [label="gini = 0.0\nsamples = 1\nvalue = [0, 1, 0, 0, 0, 0, 0]"] ;
91 -> 92 ;
93 [label="gini = 0.0\nsamples = 2\nvalue = [2, 0, 0, 0, 0, 0, 0]"] ;
91 -> 93 ;
94 [label="gini = 0.0\nsamples = 6\nvalue = [6, 0, 0, 0, 0, 0, 0]"] ;
90 -> 94 ;
95 [label="x[2] <= 1.7\ngini = 0.106\nsamples = 1304\nvalue = [1231, 66, 5, 0, 2, 0, 0]"] ;
3 -> 95 ;
96 [label="x[3] <= 52.815\ngini = 0.188\nsamples = 470\nvalue = [421, 47, 2, 0, 0, 0, 0]"] ;
95 -> 96 ;
97 [label="x[4] <= 0.5\ngini = 0.137\nsamples = 448\nvalue = [415, 32, 1, 0, 0, 0, 0]"] ;
96 -> 97 ;
98 [label="x[15] <= 1.5\ngini = 0.067\nsamples = 291\nvalue = [281, 9, 1, 0, 0, 0, 0]"] ;
97 -> 98 ;
99 [label="x[12] <= 1.5\ngini = 0.375\nsamples = 8\nvalue = [6, 2, 0, 0, 0, 0, 0]"] ;
98 -> 99 ;
100 [label="gini = 0.0\nsamples = 6\nvalue = [6, 0, 0, 0, 0, 0, 0]"] ;
99 -> 100 ;
101 [label="gini = 0.0\nsamples = 2\nvalue = [0, 2, 0, 0, 0, 0, 0]"] ;
99 -> 101 ;
102 [label="x[0] <= 0.5\ngini = 0.055\nsamples = 283\nvalue = [275, 7, 1, 0, 0, 0, 0]"] ;
98 -> 102 ;
103 [label="x[8] <= 2.5\ngini = 0.026\nsamples = 229\nvalue = [226, 2, 1, 0, 0, 0, 0]"] ;
102 -> 103 ;
104 [label="gini = 0.018\nsamples = 227\nvalue = [225, 1, 1, 0, 0, 0, 0]"] ;
103 -> 104 ;
105 [label="gini = 0.5\nsamples = 2\nvalue = [1, 1, 0, 0, 0, 0, 0]"] ;
103 -> 105 ;
106 [label="x[3] <= 47.302\ngini = 0.168\nsamples = 54\nvalue = [49, 5, 0, 0, 0, 0, 0]"] ;
102 -> 106 ;
107 [label="gini = 0.0\nsamples = 1\nvalue = [0, 1, 0, 0, 0, 0, 0]"] ;
106 -> 107 ;
108 [label="gini = 0.14\nsamples = 53\nvalue = [49, 4, 0, 0, 0, 0, 0]"] ;
106 -> 108 ;
109 [label="x[13] <= 1.02\ngini = 0.25\nsamples = 157\nvalue = [134, 23, 0, 0, 0, 0, 0]"] ;
97 -> 109 ;
110 [label="x[10] <= 1.015\ngini = 0.303\nsamples = 118\nvalue = [96, 22, 0, 0, 0, 0, 0]"] ;
109 -> 110 ;
111 [label="x[1] <= 20.5\ngini = 0.469\nsamples = 24\nvalue = [15, 9, 0, 0, 0, 0, 0]"] ;
110 -> 111 ;
112 [label="gini = 0.388\nsamples = 19\nvalue = [14, 5, 0, 0, 0, 0, 0]"] ;
111 -> 112 ;
113 [label="gini = 0.32\nsamples = 5\nvalue = [1, 4, 0, 0, 0, 0, 0]"] ;
111 -> 113 ;
114 [label="x[1] <= 21.105\ngini = 0.238\nsamples = 94\nvalue = [81, 13, 0, 0, 0, 0, 0]"] ;
110 -> 114 ;
115 [label="gini = 0.324\nsamples = 64\nvalue = [51, 13, 0, 0, 0, 0, 0]"] ;
114 -> 115 ;
116 [label="gini = 0.0\nsamples = 30\nvalue = [30, 0, 0, 0, 0, 0, 0]"] ;
114 -> 116 ;
117 [label="x[7] <= 3.998\ngini = 0.05\nsamples = 39\nvalue = [38, 1, 0, 0, 0, 0, 0]"] ;
109 -> 117 ;
118 [label="gini = 0.0\nsamples = 35\nvalue = [35, 0, 0, 0, 0, 0, 0]"] ;
117 -> 118 ;
119 [label="x[12] <= 0.257\ngini = 0.375\nsamples = 4\nvalue = [3, 1, 0, 0, 0, 0, 0]"] ;
117 -> 119 ;
120 [label="gini = 0.0\nsamples = 1\nvalue = [0, 1, 0, 0, 0, 0, 0]"] ;
119 -> 120 ;
121 [label="gini = 0.0\nsamples = 3\nvalue = [3, 0, 0, 0, 0, 0, 0]"] ;
119 -> 121 ;
122 [label="x[3] <= 54.168\ngini = 0.459\nsamples = 22\nvalue = [6.0, 15.0, 1.0, 0.0, 0.0, 0.0, 0.0]"] ;
96 -> 122 ;
123 [label="x[1] <= 17.944\ngini = 0.349\nsamples = 19\nvalue = [3, 15, 1, 0, 0, 0, 0]"] ;
122 -> 123 ;
124 [label="gini = 0.0\nsamples = 1\nvalue = [0, 0, 1, 0, 0, 0, 0]"] ;
123 -> 124 ;
125 [label="x[8] <= 1.5\ngini = 0.278\nsamples = 18\nvalue = [3, 15, 0, 0, 0, 0, 0]"] ;
123 -> 125 ;
126 [label="gini = 0.0\nsamples = 8\nvalue = [0, 8, 0, 0, 0, 0, 0]"] ;
125 -> 126 ;
127 [label="x[4] <= 0.5\ngini = 0.42\nsamples = 10\nvalue = [3, 7, 0, 0, 0, 0, 0]"] ;
125 -> 127 ;
128 [label="gini = 0.0\nsamples = 3\nvalue = [0, 3, 0, 0, 0, 0, 0]"] ;
127 -> 128 ;
129 [label="gini = 0.49\nsamples = 7\nvalue = [3, 4, 0, 0, 0, 0, 0]"] ;
127 -> 129 ;
130 [label="gini = 0.0\nsamples = 3\nvalue = [3, 0, 0, 0, 0, 0, 0]"] ;
122 -> 130 ;
131 [label="x[8] <= 2.5\ngini = 0.056\nsamples = 834\nvalue = [810.0, 19.0, 3.0, 0.0, 2.0, 0.0, 0.0]"] ;
95 -> 131 ;
132 [label="x[6] <= 1.002\ngini = 0.05\nsamples = 823\nvalue = [802.0, 16.0, 3.0, 0.0, 2.0, 0.0, 0.0]"] ;
131 -> 132 ;
133 [label="x[2] <= 1.73\ngini = 0.305\nsamples = 16\nvalue = [13, 3, 0, 0, 0, 0, 0]"] ;
132 -> 133 ;
134 [label="x[15] <= 1.5\ngini = 0.375\nsamples = 4\nvalue = [1, 3, 0, 0, 0, 0, 0]"] ;
133 -> 134 ;
135 [label="gini = 0.0\nsamples = 1\nvalue = [1, 0, 0, 0, 0, 0, 0]"] ;
134 -> 135 ;
136 [label="gini = 0.0\nsamples = 3\nvalue = [0, 3, 0, 0, 0, 0, 0]"] ;
134 -> 136 ;
137 [label="gini = 0.0\nsamples = 12\nvalue = [12, 0, 0, 0, 0, 0, 0]"] ;
133 -> 137 ;
138 [label="x[2] <= 1.895\ngini = 0.044\nsamples = 807\nvalue = [789.0, 13.0, 3.0, 0.0, 2.0, 0.0, 0.0]"] ;
132 -> 138 ;
139 [label="x[10] <= 2.976\ngini = 0.042\nsamples = 803\nvalue = [786, 12, 3, 0, 2, 0, 0]"] ;
138 -> 139 ;
140 [label="x[10] <= 1.0\ngini = 0.037\nsamples = 791\nvalue = [776, 11, 2, 0, 2, 0, 0]"] ;
139 -> 140 ;
141 [label="gini = 0.115\nsamples = 133\nvalue = [125, 5, 1, 0, 2, 0, 0]"] ;
140 -> 141 ;
142 [label="gini = 0.021\nsamples = 658\nvalue = [651, 6, 1, 0, 0, 0, 0]"] ;
140 -> 142 ;
143 [label="x[1] <= 16.62\ngini = 0.292\nsamples = 12\nvalue = [10, 1, 1, 0, 0, 0, 0]"] ;
139 -> 143 ;
144 [label="gini = 0.0\nsamples = 1\nvalue = [0, 0, 1, 0, 0, 0, 0]"] ;
143 -> 144 ;
145 [label="gini = 0.165\nsamples = 11\nvalue = [10, 1, 0, 0, 0, 0, 0]"] ;
143 -> 145 ;
146 [label="x[1] <= 17.102\ngini = 0.375\nsamples = 4\nvalue = [3, 1, 0, 0, 0, 0, 0]"] ;
138 -> 146 ;
147 [label="gini = 0.0\nsamples = 1\nvalue = [0, 1, 0, 0, 0, 0, 0]"] ;
146 -> 147 ;
148 [label="gini = 0.0\nsamples = 3\nvalue = [3, 0, 0, 0, 0, 0, 0]"] ;
146 -> 148 ;
149 [label="x[12] <= 1.5\ngini = 0.397\nsamples = 11\nvalue = [8, 3, 0, 0, 0, 0, 0]"] ;
131 -> 149 ;
150 [label="x[2] <= 1.798\ngini = 0.48\nsamples = 5\nvalue = [2, 3, 0, 0, 0, 0, 0]"] ;
149 -> 150 ;
151 [label="gini = 0.0\nsamples = 3\nvalue = [0, 3, 0, 0, 0, 0, 0]"] ;
150 -> 151 ;
152 [label="gini = 0.0\nsamples = 2\nvalue = [2, 0, 0, 0, 0, 0, 0]"] ;
150 -> 152 ;
153 [label="gini = 0.0\nsamples = 6\nvalue = [6, 0, 0, 0, 0, 0, 0]"] ;
149 -> 153 ;
154 [label="x[3] <= 61.111\ngini = 0.624\nsamples = 4738\nvalue = [452.0, 2357.0, 1617.0, 259.0, 50.0, 0.0, 3.0]"] ;
2 -> 154 ;
155 [label="x[2] <= 1.701\ngini = 0.476\nsamples = 1503\nvalue = [417.0, 1003.0, 61.0, 21.0, 1.0, 0.0, 0.0]"] ;
154 -> 155 ;
156 [label="x[2] <= 1.519\ngini = 0.217\nsamples = 1014\nvalue = [42, 894, 56, 21, 1, 0, 0]"] ;
155 -> 156 ;
157 [label="x[2] <= 1.493\ngini = 0.673\nsamples = 49\nvalue = [2.0, 21.0, 14.0, 12.0, 0.0, 0.0, 0.0]"] ;
156 -> 157 ;
158 [label="x[13] <= 0.972\ngini = 0.219\nsamples = 8\nvalue = [1, 0, 0, 7, 0, 0, 0]"] ;
157 -> 158 ;
159 [label="gini = 0.0\nsamples = 7\nvalue = [0, 0, 0, 7, 0, 0, 0]"] ;
158 -> 159 ;
160 [label="gini = 0.0\nsamples = 1\nvalue = [1, 0, 0, 0, 0, 0, 0]"] ;
158 -> 160 ;
161 [label="x[4] <= 0.5\ngini = 0.606\nsamples = 41\nvalue = [1.0, 21.0, 14.0, 5.0, 0.0, 0.0, 0.0]"] ;
157 -> 161 ;
162 [label="x[12] <= 0.555\ngini = 0.516\nsamples = 15\nvalue = [1, 2, 10, 2, 0, 0, 0]"] ;
161 -> 162 ;
163 [label="x[8] <= 1.5\ngini = 0.198\nsamples = 9\nvalue = [0, 0, 8, 1, 0, 0, 0]"] ;
162 -> 163 ;
164 [label="gini = 0.0\nsamples = 8\nvalue = [0, 0, 8, 0, 0, 0, 0]"] ;
163 -> 164 ;
165 [label="gini = 0.0\nsamples = 1\nvalue = [0, 0, 0, 1, 0, 0, 0]"] ;
163 -> 165 ;
166 [label="x[11] <= 0.5\ngini = 0.722\nsamples = 6\nvalue = [1, 2, 2, 1, 0, 0, 0]"] ;
162 -> 166 ;
167 [label="gini = 0.625\nsamples = 4\nvalue = [1, 2, 0, 1, 0, 0, 0]"] ;
166 -> 167 ;
168 [label="gini = 0.0\nsamples = 2\nvalue = [0, 0, 2, 0, 0, 0, 0]"] ;
166 -> 168 ;
169 [label="x[3] <= 59.0\ngini = 0.429\nsamples = 26\nvalue = [0, 19, 4, 3, 0, 0, 0]"] ;
161 -> 169 ;
170 [label="x[12] <= 0.5\ngini = 0.265\nsamples = 20\nvalue = [0, 17, 2, 1, 0, 0, 0]"] ;
169 -> 170 ;
171 [label="gini = 0.43\nsamples = 11\nvalue = [0, 8, 2, 1, 0, 0, 0]"] ;
170 -> 171 ;
172 [label="gini = 0.0\nsamples = 9\nvalue = [0, 9, 0, 0, 0, 0, 0]"] ;
170 -> 172 ;
173 [label="x[1] <= 22.5\ngini = 0.667\nsamples = 6\nvalue = [0, 2, 2, 2, 0, 0, 0]"] ;
169 -> 173 ;
174 [label="gini = 0.444\nsamples = 3\nvalue = [0, 2, 1, 0, 0, 0, 0]"] ;
173 -> 174 ;
175 [label="gini = 0.444\nsamples = 3\nvalue = [0, 0, 1, 2, 0, 0, 0]"] ;
173 -> 175 ;
176 [label="x[2] <= 1.683\ngini = 0.178\nsamples = 965\nvalue = [40, 873, 42, 9, 1, 0, 0]"] ;
156 -> 176 ;
177 [label="x[13] <= 1.172\ngini = 0.153\nsamples = 873\nvalue = [21, 802, 40, 9, 1, 0, 0]"] ;
176 -> 177 ;
178 [label="x[2] <= 1.585\ngini = 0.128\nsamples = 815\nvalue = [13.0, 760.0, 35.0, 6.0, 1.0, 0.0, 0.0]"] ;
177 -> 178 ;
179 [label="x[3] <= 58.75\ngini = 0.274\nsamples = 161\nvalue = [3.0, 136.0, 17.0, 4.0, 1.0, 0.0, 0.0]"] ;
178 -> 179 ;
180 [label="gini = 0.112\nsamples = 119\nvalue = [1, 112, 6, 0, 0, 0, 0]"] ;
179 -> 180 ;
181 [label="gini = 0.593\nsamples = 42\nvalue = [2, 24, 11, 4, 1, 0, 0]"] ;
179 -> 181 ;
182 [label="x[11] <= 0.5\ngini = 0.089\nsamples = 654\nvalue = [10, 624, 18, 2, 0, 0, 0]"] ;
178 -> 182 ;
183 [label="gini = 0.072\nsamples = 620\nvalue = [9.0, 597.0, 13.0, 1.0, 0.0, 0.0, 0.0]"] ;
182 -> 183 ;
184 [label="gini = 0.346\nsamples = 34\nvalue = [1, 27, 5, 1, 0, 0, 0]"] ;
182 -> 184 ;
185 [label="x[13] <= 1.778\ngini = 0.446\nsamples = 58\nvalue = [8, 42, 5, 3, 0, 0, 0]"] ;
177 -> 185 ;
186 [label="x[6] <= 2.226\ngini = 0.5\nsamples = 2\nvalue = [1, 0, 1, 0, 0, 0, 0]"] ;
185 -> 186 ;
187 [label="gini = 0.0\nsamples = 1\nvalue = [0, 0, 1, 0, 0, 0, 0]"] ;
186 -> 187 ;
188 [label="gini = 0.0\nsamples = 1\nvalue = [1, 0, 0, 0, 0, 0, 0]"] ;
186 -> 188 ;
189 [label="x[1] <= 21.5\ngini = 0.414\nsamples = 56\nvalue = [7, 42, 4, 3, 0, 0, 0]"] ;
185 -> 189 ;
190 [label="gini = 0.304\nsamples = 35\nvalue = [2.0, 29.0, 2.0, 2.0, 0.0, 0.0, 0.0]"] ;
189 -> 190 ;
191 [label="gini = 0.549\nsamples = 21\nvalue = [5, 13, 2, 1, 0, 0, 0]"] ;
189 -> 191 ;
192 [label="x[15] <= 3.0\ngini = 0.361\nsamples = 92\nvalue = [19, 71, 2, 0, 0, 0, 0]"] ;
176 -> 192 ;
193 [label="x[2] <= 1.69\ngini = 0.249\nsamples = 70\nvalue = [9, 60, 1, 0, 0, 0, 0]"] ;
192 -> 193 ;
194 [label="gini = 0.0\nsamples = 2\nvalue = [2, 0, 0, 0, 0, 0, 0]"] ;
193 -> 194 ;
195 [label="x[14] <= 1.5\ngini = 0.211\nsamples = 68\nvalue = [7, 60, 1, 0, 0, 0, 0]"] ;
193 -> 195 ;
196 [label="gini = 0.187\nsamples = 67\nvalue = [7, 60, 0, 0, 0, 0, 0]"] ;
195 -> 196 ;
197 [label="gini = 0.0\nsamples = 1\nvalue = [0, 0, 1, 0, 0, 0, 0]"] ;
195 -> 197 ;
198 [label="x[1] <= 21.0\ngini = 0.541\nsamples = 22\nvalue = [10, 11, 1, 0, 0, 0, 0]"] ;
192 -> 198 ;
199 [label="x[0] <= 0.5\ngini = 0.537\nsamples = 18\nvalue = [10, 7, 1, 0, 0, 0, 0]"] ;
198 -> 199 ;
200 [label="gini = 0.375\nsamples = 8\nvalue = [2, 6, 0, 0, 0, 0, 0]"] ;
199 -> 200 ;
201 [label="gini = 0.34\nsamples = 10\nvalue = [8, 1, 1, 0, 0, 0, 0]"] ;
199 -> 201 ;
202 [label="gini = 0.0\nsamples = 4\nvalue = [0, 4, 0, 0, 0, 0, 0]"] ;
198 -> 202 ;
203 [label="x[7] <= 3.019\ngini = 0.362\nsamples = 489\nvalue = [375, 109, 5, 0, 0, 0, 0]"] ;
155 -> 203 ;
204 [label="x[4] <= 0.5\ngini = 0.471\nsamples = 257\nvalue = [161, 95, 1, 0, 0, 0, 0]"] ;
203 -> 204 ;
205 [label="x[1] <= 17.879\ngini = 0.474\nsamples = 83\nvalue = [32, 51, 0, 0, 0, 0, 0]"] ;
204 -> 205 ;
206 [label="x[8] <= 2.5\ngini = 0.48\nsamples = 30\nvalue = [18, 12, 0, 0, 0, 0, 0]"] ;
205 -> 206 ;
207 [label="x[12] <= 2.005\ngini = 0.459\nsamples = 28\nvalue = [18, 10, 0, 0, 0, 0, 0]"] ;
206 -> 207 ;
208 [label="gini = 0.486\nsamples = 24\nvalue = [14, 10, 0, 0, 0, 0, 0]"] ;
207 -> 208 ;
209 [label="gini = 0.0\nsamples = 4\nvalue = [4, 0, 0, 0, 0, 0, 0]"] ;
207 -> 209 ;
210 [label="gini = 0.0\nsamples = 2\nvalue = [0, 2, 0, 0, 0, 0, 0]"] ;
206 -> 210 ;
211 [label="x[14] <= 0.5\ngini = 0.389\nsamples = 53\nvalue = [14, 39, 0, 0, 0, 0, 0]"] ;
205 -> 211 ;
212 [label="x[2] <= 1.825\ngini = 0.499\nsamples = 19\nvalue = [9, 10, 0, 0, 0, 0, 0]"] ;
211 -> 212 ;
213 [label="gini = 0.469\nsamples = 16\nvalue = [6, 10, 0, 0, 0, 0, 0]"] ;
212 -> 213 ;
214 [label="gini = 0.0\nsamples = 3\nvalue = [3, 0, 0, 0, 0, 0, 0]"] ;
212 -> 214 ;
215 [label="x[12] <= 1.5\ngini = 0.251\nsamples = 34\nvalue = [5, 29, 0, 0, 0, 0, 0]"] ;
211 -> 215 ;
216 [label="gini = 0.1\nsamples = 19\nvalue = [1, 18, 0, 0, 0, 0, 0]"] ;
215 -> 216 ;
217 [label="gini = 0.391\nsamples = 15\nvalue = [4, 11, 0, 0, 0, 0, 0]"] ;
215 -> 217 ;
218 [label="x[2] <= 1.805\ngini = 0.386\nsamples = 174\nvalue = [129.0, 44.0, 1.0, 0.0, 0.0, 0.0, 0.0]"] ;
204 -> 218 ;
219 [label="x[3] <= 59.941\ngini = 0.487\nsamples = 103\nvalue = [62.0, 40.0, 1.0, 0.0, 0.0, 0.0, 0.0]"] ;
218 -> 219 ;
220 [label="x[8] <= 2.5\ngini = 0.371\nsamples = 71\nvalue = [54, 16, 1, 0, 0, 0, 0]"] ;
219 -> 220 ;
221 [label="gini = 0.346\nsamples = 69\nvalue = [54, 14, 1, 0, 0, 0, 0]"] ;
220 -> 221 ;
222 [label="gini = 0.0\nsamples = 2\nvalue = [0, 2, 0, 0, 0, 0, 0]"] ;
220 -> 222 ;
223 [label="x[15] <= 1.5\ngini = 0.375\nsamples = 32\nvalue = [8, 24, 0, 0, 0, 0, 0]"] ;
219 -> 223 ;
224 [label="gini = 0.375\nsamples = 4\nvalue = [3, 1, 0, 0, 0, 0, 0]"] ;
223 -> 224 ;
225 [label="gini = 0.293\nsamples = 28\nvalue = [5, 23, 0, 0, 0, 0, 0]"] ;
223 -> 225 ;
226 [label="x[2] <= 1.898\ngini = 0.106\nsamples = 71\nvalue = [67, 4, 0, 0, 0, 0, 0]"] ;
218 -> 226 ;
227 [label="x[1] <= 24.0\ngini = 0.082\nsamples = 70\nvalue = [67, 3, 0, 0, 0, 0, 0]"] ;
226 -> 227 ;
228 [label="gini = 0.057\nsamples = 68\nvalue = [66, 2, 0, 0, 0, 0, 0]"] ;
227 -> 228 ;
229 [label="gini = 0.5\nsamples = 2\nvalue = [1, 1, 0, 0, 0, 0, 0]"] ;
227 -> 229 ;
230 [label="gini = 0.0\nsamples = 1\nvalue = [0, 1, 0, 0, 0, 0, 0]"] ;
226 -> 230 ;
231 [label="x[1] <= 23.802\ngini = 0.145\nsamples = 232\nvalue = [214, 14, 4, 0, 0, 0, 0]"] ;
203 -> 231 ;
232 [label="x[3] <= 55.007\ngini = 0.131\nsamples = 230\nvalue = [214, 12, 4, 0, 0, 0, 0]"] ;
231 -> 232 ;
233 [label="x[2] <= 1.766\ngini = 0.443\nsamples = 17\nvalue = [12, 4, 1, 0, 0, 0, 0]"] ;
232 -> 233 ;
234 [label="x[13] <= 0.5\ngini = 0.245\nsamples = 14\nvalue = [12, 2, 0, 0, 0, 0, 0]"] ;
233 -> 234 ;
235 [label="gini = 0.5\nsamples = 4\nvalue = [2, 2, 0, 0, 0, 0, 0]"] ;
234 -> 235 ;
236 [label="gini = 0.0\nsamples = 10\nvalue = [10, 0, 0, 0, 0, 0, 0]"] ;
234 -> 236 ;
237 [label="x[3] <= 55.002\ngini = 0.444\nsamples = 3\nvalue = [0, 2, 1, 0, 0, 0, 0]"] ;
233 -> 237 ;
238 [label="gini = 0.0\nsamples = 2\nvalue = [0, 2, 0, 0, 0, 0, 0]"] ;
237 -> 238 ;
239 [label="gini = 0.0\nsamples = 1\nvalue = [0, 0, 1, 0, 0, 0, 0]"] ;
237 -> 239 ;
240 [label="x[10] <= 1.087\ngini = 0.099\nsamples = 213\nvalue = [202, 8, 3, 0, 0, 0, 0]"] ;
232 -> 240 ;
241 [label="x[15] <= 3.0\ngini = 0.5\nsamples = 4\nvalue = [2, 2, 0, 0, 0, 0, 0]"] ;
240 -> 241 ;
242 [label="gini = 0.0\nsamples = 2\nvalue = [0, 2, 0, 0, 0, 0, 0]"] ;
241 -> 242 ;
243 [label="gini = 0.0\nsamples = 2\nvalue = [2, 0, 0, 0, 0, 0, 0]"] ;
241 -> 243 ;
244 [label="x[1] <= 16.131\ngini = 0.083\nsamples = 209\nvalue = [200, 6, 3, 0, 0, 0, 0]"] ;
240 -> 244 ;
245 [label="gini = 0.5\nsamples = 2\nvalue = [1, 1, 0, 0, 0, 0, 0]"] ;
244 -> 245 ;
246 [label="gini = 0.075\nsamples = 207\nvalue = [199, 5, 3, 0, 0, 0, 0]"] ;
244 -> 246 ;
247 [label="gini = 0.0\nsamples = 2\nvalue = [0, 2, 0, 0, 0, 0, 0]"] ;
231 -> 247 ;
248 [label="x[2] <= 1.74\ngini = 0.588\nsamples = 3235\nvalue = [35, 1354, 1556, 238, 49, 0, 3]"] ;
154 -> 248 ;
249 [label="x[3] <= 72.874\ngini = 0.562\nsamples = 2472\nvalue = [9.0, 746.0, 1436.0, 232.0, 46.0, 0.0, 3.0]"] ;
248 -> 249 ;
250 [label="x[2] <= 1.65\ngini = 0.599\nsamples = 1805\nvalue = [8, 719, 866, 194, 16, 0, 2]"] ;
249 -> 250 ;
251 [label="x[5] <= 0.5\ngini = 0.512\nsamples = 1094\nvalue = [7, 184, 723, 165, 13, 0, 2]"] ;
250 -> 251 ;
252 [label="x[4] <= 0.5\ngini = 0.604\nsamples = 215\nvalue = [1, 34, 66, 113, 1, 0, 0]"] ;
251 -> 252 ;
253 [label="x[10] <= 2.387\ngini = 0.498\nsamples = 60\nvalue = [0, 12, 40, 8, 0, 0, 0]"] ;
252 -> 253 ;
254 [label="gini = 0.609\nsamples = 40\nvalue = [0, 11, 21, 8, 0, 0, 0]"] ;
253 -> 254 ;
255 [label="gini = 0.095\nsamples = 20\nvalue = [0, 1, 19, 0, 0, 0, 0]"] ;
253 -> 255 ;
256 [label="x[2] <= 1.6\ngini = 0.493\nsamples = 155\nvalue = [1.0, 22.0, 26.0, 105.0, 1.0, 0.0, 0.0]"] ;
252 -> 256 ;
257 [label="gini = 0.224\nsamples = 88\nvalue = [1, 1, 9, 77, 0, 0, 0]"] ;
256 -> 257 ;
258 [label="gini = 0.663\nsamples = 67\nvalue = [0, 21, 17, 28, 1, 0, 0]"] ;
256 -> 258 ;
259 [label="x[3] <= 67.042\ngini = 0.408\nsamples = 879\nvalue = [6, 150, 657, 52, 12, 0, 2]"] ;
251 -> 259 ;
260 [label="x[2] <= 1.61\ngini = 0.533\nsamples = 457\nvalue = [6.0, 127.0, 283.0, 37.0, 3.0, 0.0, 1.0]"] ;
259 -> 260 ;
261 [label="gini = 0.428\nsamples = 321\nvalue = [6.0, 39.0, 237.0, 35.0, 3.0, 0.0, 1.0]"] ;
260 -> 261 ;
262 [label="gini = 0.467\nsamples = 136\nvalue = [0, 88, 46, 2, 0, 0, 0]"] ;
260 -> 262 ;
263 [label="x[2] <= 1.595\ngini = 0.21\nsamples = 422\nvalue = [0, 23, 374, 15, 9, 0, 1]"] ;
259 -> 263 ;
264 [label="gini = 0.55\nsamples = 35\nvalue = [0, 3, 22, 7, 3, 0, 0]"] ;
263 -> 264 ;
265 [label="gini = 0.169\nsamples = 387\nvalue = [0, 20, 352, 8, 6, 0, 1]"] ;
263 -> 265 ;
266 [label="x[7] <= 2.996\ngini = 0.392\nsamples = 711\nvalue = [1.0, 535.0, 143.0, 29.0, 3.0, 0.0, 0.0]"] ;
250 -> 266 ;
267 [label="x[3] <= 68.409\ngini = 0.591\nsamples = 104\nvalue = [0, 33, 56, 14, 1, 0, 0]"] ;
266 -> 267 ;
268 [label="x[8] <= 1.5\ngini = 0.607\nsamples = 50\nvalue = [0, 26, 15, 9, 0, 0, 0]"] ;
267 -> 268 ;
269 [label="gini = 0.649\nsamples = 40\nvalue = [0, 16, 15, 9, 0, 0, 0]"] ;
268 -> 269 ;
270 [label="gini = 0.0\nsamples = 10\nvalue = [0, 10, 0, 0, 0, 0, 0]"] ;
268 -> 270 ;
271 [label="x[14] <= 0.5\ngini = 0.398\nsamples = 54\nvalue = [0, 7, 41, 5, 1, 0, 0]"] ;
267 -> 271 ;
272 [label="gini = 0.7\nsamples = 10\nvalue = [0, 2, 3, 4, 1, 0, 0]"] ;
271 -> 272 ;
273 [label="gini = 0.241\nsamples = 44\nvalue = [0, 5, 38, 1, 0, 0, 0]"] ;
271 -> 273 ;
274 [label="x[8] <= 0.5\ngini = 0.295\nsamples = 607\nvalue = [1, 502, 87, 15, 2, 0, 0]"] ;
266 -> 274 ;
275 [label="x[1] <= 21.919\ngini = 0.463\nsamples = 22\nvalue = [0, 8, 14, 0, 0, 0, 0]"] ;
274 -> 275 ;
276 [label="gini = 0.305\nsamples = 16\nvalue = [0, 3, 13, 0, 0, 0, 0]"] ;
275 -> 276 ;
277 [label="gini = 0.278\nsamples = 6\nvalue = [0, 5, 1, 0, 0, 0, 0]"] ;
275 -> 277 ;
278 [label="x[0] <= 0.5\ngini = 0.271\nsamples = 585\nvalue = [1, 494, 73, 15, 2, 0, 0]"] ;
274 -> 278 ;
279 [label="gini = 0.463\nsamples = 169\nvalue = [1, 117, 39, 11, 1, 0, 0]"] ;
278 -> 279 ;
280 [label="gini = 0.172\nsamples = 416\nvalue = [0, 377, 34, 4, 1, 0, 0]"] ;
278 -> 280 ;
281 [label="x[2] <= 1.588\ngini = 0.263\nsamples = 667\nvalue = [1.0, 27.0, 570.0, 38.0, 30.0, 0.0, 1.0]"] ;
249 -> 281 ;
282 [label="x[1] <= 34.116\ngini = 0.527\nsamples = 32\nvalue = [1, 1, 4, 5, 21, 0, 0]"] ;
281 -> 282 ;
283 [label="x[1] <= 21.696\ngini = 0.678\nsamples = 11\nvalue = [0, 1, 3, 5, 2, 0, 0]"] ;
282 -> 283 ;
284 [label="x[14] <= 0.5\ngini = 0.32\nsamples = 5\nvalue = [0, 1, 0, 4, 0, 0, 0]"] ;
283 -> 284 ;
285 [label="gini = 0.0\nsamples = 1\nvalue = [0, 1, 0, 0, 0, 0, 0]"] ;
284 -> 285 ;
286 [label="gini = 0.0\nsamples = 4\nvalue = [0, 0, 0, 4, 0, 0, 0]"] ;
284 -> 286 ;
287 [label="x[3] <= 75.075\ngini = 0.611\nsamples = 6\nvalue = [0, 0, 3, 1, 2, 0, 0]"] ;
283 -> 287 ;
288 [label="gini = 0.375\nsamples = 4\nvalue = [0, 0, 3, 1, 0, 0, 0]"] ;
287 -> 288 ;
289 [label="gini = 0.0\nsamples = 2\nvalue = [0, 0, 0, 0, 2, 0, 0]"] ;
287 -> 289 ;
290 [label="x[1] <= 42.777\ngini = 0.177\nsamples = 21\nvalue = [1, 0, 1, 0, 19, 0, 0]"] ;
282 -> 290 ;
291 [label="x[4] <= 0.5\ngini = 0.095\nsamples = 20\nvalue = [0, 0, 1, 0, 19, 0, 0]"] ;
290 -> 291 ;
292 [label="gini = 0.5\nsamples = 2\nvalue = [0, 0, 1, 0, 1, 0, 0]"] ;
291 -> 292 ;
293 [label="gini = 0.0\nsamples = 18\nvalue = [0, 0, 0, 0, 18, 0, 0]"] ;
291 -> 293 ;
294 [label="gini = 0.0\nsamples = 1\nvalue = [1, 0, 0, 0, 0, 0, 0]"] ;
290 -> 294 ;
295 [label="x[5] <= 0.5\ngini = 0.201\nsamples = 635\nvalue = [0, 26, 566, 33, 9, 0, 1]"] ;
281 -> 295 ;
296 [label="x[11] <= 0.5\ngini = 0.452\nsamples = 66\nvalue = [0, 4, 46, 16, 0, 0, 0]"] ;
295 -> 296 ;
297 [label="x[2] <= 1.7\ngini = 0.495\nsamples = 57\nvalue = [0, 4, 37, 16, 0, 0, 0]"] ;
296 -> 297 ;
298 [label="gini = 0.468\nsamples = 51\nvalue = [0, 4, 35, 12, 0, 0, 0]"] ;
297 -> 298 ;
299 [label="gini = 0.444\nsamples = 6\nvalue = [0, 0, 2, 4, 0, 0, 0]"] ;
297 -> 299 ;
300 [label="gini = 0.0\nsamples = 9\nvalue = [0, 0, 9, 0, 0, 0, 0]"] ;
296 -> 300 ;
301 [label="x[3] <= 75.985\ngini = 0.162\nsamples = 569\nvalue = [0.0, 22.0, 520.0, 17.0, 9.0, 0.0, 1.0]"] ;
295 -> 301 ;
302 [label="x[1] <= 39.5\ngini = 0.137\nsamples = 556\nvalue = [0, 19, 516, 14, 6, 0, 1]"] ;
301 -> 302 ;
303 [label="gini = 0.128\nsamples = 551\nvalue = [0.0, 19.0, 514.0, 13.0, 4.0, 0.0, 1.0]"] ;
302 -> 303 ;
304 [label="gini = 0.64\nsamples = 5\nvalue = [0, 0, 2, 1, 2, 0, 0]"] ;
302 -> 304 ;
305 [label="x[12] <= 0.5\ngini = 0.746\nsamples = 13\nvalue = [0, 3, 4, 3, 3, 0, 0]"] ;
301 -> 305 ;
306 [label="gini = 0.375\nsamples = 4\nvalue = [0, 0, 1, 0, 3, 0, 0]"] ;
305 -> 306 ;
307 [label="gini = 0.667\nsamples = 9\nvalue = [0, 3, 3, 3, 0, 0, 0]"] ;
305 -> 307 ;
308 [label="x[3] <= 72.5\ngini = 0.339\nsamples = 763\nvalue = [26.0, 608.0, 120.0, 6.0, 3.0, 0.0, 0.0]"] ;
248 -> 308 ;
309 [label="x[3] <= 61.808\ngini = 0.185\nsamples = 492\nvalue = [26, 443, 21, 2, 0, 0, 0]"] ;
308 -> 309 ;
310 [label="gini = 0.0\nsamples = 8\nvalue = [8, 0, 0, 0, 0, 0, 0]"] ;
309 -> 310 ;
311 [label="x[3] <= 64.904\ngini = 0.159\nsamples = 484\nvalue = [18, 443, 21, 2, 0, 0, 0]"] ;
309 -> 311 ;
312 [label="x[15] <= 3.0\ngini = 0.392\nsamples = 77\nvalue = [15, 58, 4, 0, 0, 0, 0]"] ;
311 -> 312 ;
313 [label="x[15] <= 1.5\ngini = 0.229\nsamples = 63\nvalue = [5, 55, 3, 0, 0, 0, 0]"] ;
312 -> 313 ;
314 [label="gini = 0.5\nsamples = 6\nvalue = [0, 3, 3, 0, 0, 0, 0]"] ;
313 -> 314 ;
315 [label="gini = 0.16\nsamples = 57\nvalue = [5, 52, 0, 0, 0, 0, 0]"] ;
313 -> 315 ;
316 [label="x[2] <= 1.796\ngini = 0.439\nsamples = 14\nvalue = [10, 3, 1, 0, 0, 0, 0]"] ;
312 -> 316 ;
317 [label="gini = 0.56\nsamples = 5\nvalue = [1, 3, 1, 0, 0, 0, 0]"] ;
316 -> 317 ;
318 [label="gini = 0.0\nsamples = 9\nvalue = [9, 0, 0, 0, 0, 0, 0]"] ;
316 -> 318 ;
319 [label="x[8] <= 0.5\ngini = 0.103\nsamples = 407\nvalue = [3, 385, 17, 2, 0, 0, 0]"] ;
311 -> 319 ;
320 [label="x[2] <= 1.762\ngini = 0.496\nsamples = 11\nvalue = [0, 6, 5, 0, 0, 0, 0]"] ;
319 -> 320 ;
321 [label="gini = 0.0\nsamples = 4\nvalue = [0, 0, 4, 0, 0, 0, 0]"] ;
320 -> 321 ;
322 [label="gini = 0.245\nsamples = 7\nvalue = [0, 6, 1, 0, 0, 0, 0]"] ;
320 -> 322 ;
323 [label="x[2] <= 1.905\ngini = 0.083\nsamples = 396\nvalue = [3, 379, 12, 2, 0, 0, 0]"] ;
319 -> 323 ;
324 [label="gini = 0.079\nsamples = 395\nvalue = [3, 379, 11, 2, 0, 0, 0]"] ;
323 -> 324 ;
325 [label="gini = 0.0\nsamples = 1\nvalue = [0, 0, 1, 0, 0, 0, 0]"] ;
323 -> 325 ;
326 [label="x[1] <= 35.097\ngini = 0.495\nsamples = 271\nvalue = [0, 165, 99, 4, 3, 0, 0]"] ;
308 -> 326 ;
327 [label="x[14] <= 0.5\ngini = 0.477\nsamples = 260\nvalue = [0, 165, 90, 4, 1, 0, 0]"] ;
326 -> 327 ;
328 [label="x[0] <= 0.5\ngini = 0.261\nsamples = 53\nvalue = [0, 45, 7, 0, 1, 0, 0]"] ;
327 -> 328 ;
329 [label="x[10] <= 1.582\ngini = 0.611\nsamples = 6\nvalue = [0, 2, 3, 0, 1, 0, 0]"] ;
328 -> 329 ;
330 [label="gini = 0.0\nsamples = 3\nvalue = [0, 0, 3, 0, 0, 0, 0]"] ;
329 -> 330 ;
331 [label="gini = 0.444\nsamples = 3\nvalue = [0, 2, 0, 0, 1, 0, 0]"] ;
329 -> 331 ;
332 [label="x[1] <= 32.0\ngini = 0.156\nsamples = 47\nvalue = [0, 43, 4, 0, 0, 0, 0]"] ;
328 -> 332 ;
333 [label="gini = 0.122\nsamples = 46\nvalue = [0, 43, 3, 0, 0, 0, 0]"] ;
332 -> 333 ;
334 [label="gini = 0.0\nsamples = 1\nvalue = [0, 0, 1, 0, 0, 0, 0]"] ;
332 -> 334 ;
335 [label="x[10] <= 2.056\ngini = 0.503\nsamples = 207\nvalue = [0, 120, 83, 4, 0, 0, 0]"] ;
327 -> 335 ;
336 [label="x[12] <= 0.922\ngini = 0.466\nsamples = 166\nvalue = [0, 107, 57, 2, 0, 0, 0]"] ;
335 -> 336 ;
337 [label="gini = 0.42\nsamples = 20\nvalue = [0, 6, 14, 0, 0, 0, 0]"] ;
336 -> 337 ;
338 [label="gini = 0.435\nsamples = 146\nvalue = [0, 101, 43, 2, 0, 0, 0]"] ;
336 -> 338 ;
339 [label="x[1] <= 22.5\ngini = 0.495\nsamples = 41\nvalue = [0, 13, 26, 2, 0, 0, 0]"] ;
335 -> 339 ;
340 [label="gini = 0.432\nsamples = 32\nvalue = [0, 7, 23, 2, 0, 0, 0]"] ;
339 -> 340 ;
341 [label="gini = 0.444\nsamples = 9\nvalue = [0, 6, 3, 0, 0, 0, 0]"] ;
339 -> 341 ;
342 [label="x[15] <= 3.0\ngini = 0.298\nsamples = 11\nvalue = [0, 0, 9, 0, 2, 0, 0]"] ;
326 -> 342 ;
343 [label="gini = 0.0\nsamples = 1\nvalue = [0, 0, 0, 0, 1, 0, 0]"] ;
342 -> 343 ;
344 [label="x[1] <= 42.0\ngini = 0.18\nsamples = 10\nvalue = [0, 0, 9, 0, 1, 0, 0]"] ;
342 -> 344 ;
345 [label="gini = 0.0\nsamples = 8\nvalue = [0, 0, 8, 0, 0, 0, 0]"] ;
344 -> 345 ;
346 [label="x[1] <= 52.0\ngini = 0.5\nsamples = 2\nvalue = [0, 0, 1, 0, 1, 0, 0]"] ;
344 -> 346 ;
347 [label="gini = 0.0\nsamples = 1\nvalue = [0, 0, 0, 0, 1, 0, 0]"] ;
346 -> 347 ;
348 [label="gini = 0.0\nsamples = 1\nvalue = [0, 0, 1, 0, 0, 0, 0]"] ;
346 -> 348 ;
349 [label="x[2] <= 1.65\ngini = 0.641\nsamples = 5221\nvalue = [2.0, 82.0, 790.0, 2243.0, 2032.0, 69.0, 3.0]"] ;
1 -> 349 ;
350 [label="x[5] <= 0.5\ngini = 0.254\nsamples = 1061\nvalue = [0, 3, 39, 91, 911, 16, 1]"] ;
349 -> 350 ;
351 [label="x[1] <= 33.5\ngini = 0.485\nsamples = 55\nvalue = [0, 1, 2, 36, 16, 0, 0]"] ;
350 -> 351 ;
352 [label="x[7] <= 1.278\ngini = 0.368\nsamples = 40\nvalue = [0, 1, 1, 31, 7, 0, 0]"] ;
351 -> 352 ;
353 [label="x[3] <= 79.849\ngini = 0.594\nsamples = 8\nvalue = [0, 0, 1, 3, 4, 0, 0]"] ;
352 -> 353 ;
354 [label="x[9] <= 0.5\ngini = 0.56\nsamples = 5\nvalue = [0, 0, 1, 3, 1, 0, 0]"] ;
353 -> 354 ;
355 [label="x[8] <= 0.5\ngini = 0.375\nsamples = 4\nvalue = [0, 0, 1, 3, 0, 0, 0]"] ;
354 -> 355 ;
356 [label="gini = 0.0\nsamples = 1\nvalue = [0, 0, 1, 0, 0, 0, 0]"] ;
355 -> 356 ;
357 [label="gini = 0.0\nsamples = 3\nvalue = [0, 0, 0, 3, 0, 0, 0]"] ;
355 -> 357 ;
358 [label="gini = 0.0\nsamples = 1\nvalue = [0, 0, 0, 0, 1, 0, 0]"] ;
354 -> 358 ;
359 [label="gini = 0.0\nsamples = 3\nvalue = [0, 0, 0, 0, 3, 0, 0]"] ;
353 -> 359 ;
360 [label="x[3] <= 83.632\ngini = 0.225\nsamples = 32\nvalue = [0, 1, 0, 28, 3, 0, 0]"] ;
352 -> 360 ;
361 [label="x[3] <= 77.067\ngini = 0.179\nsamples = 31\nvalue = [0, 1, 0, 28, 2, 0, 0]"] ;
360 -> 361 ;
362 [label="x[6] <= 2.5\ngini = 0.5\nsamples = 2\nvalue = [0, 1, 0, 1, 0, 0, 0]"] ;
361 -> 362 ;
363 [label="gini = 0.0\nsamples = 1\nvalue = [0, 0, 0, 1, 0, 0, 0]"] ;
362 -> 363 ;
364 [label="gini = 0.0\nsamples = 1\nvalue = [0, 1, 0, 0, 0, 0, 0]"] ;
362 -> 364 ;
365 [label="x[13] <= 0.213\ngini = 0.128\nsamples = 29\nvalue = [0, 0, 0, 27, 2, 0, 0]"] ;
361 -> 365 ;
366 [label="x[12] <= 1.987\ngini = 0.32\nsamples = 10\nvalue = [0, 0, 0, 8, 2, 0, 0]"] ;
365 -> 366 ;
367 [label="gini = 0.219\nsamples = 8\nvalue = [0, 0, 0, 7, 1, 0, 0]"] ;
366 -> 367 ;
368 [label="gini = 0.5\nsamples = 2\nvalue = [0, 0, 0, 1, 1, 0, 0]"] ;
366 -> 368 ;
369 [label="gini = 0.0\nsamples = 19\nvalue = [0, 0, 0, 19, 0, 0, 0]"] ;
365 -> 369 ;
370 [label="gini = 0.0\nsamples = 1\nvalue = [0, 0, 0, 0, 1, 0, 0]"] ;
360 -> 370 ;
371 [label="x[2] <= 1.535\ngini = 0.524\nsamples = 15\nvalue = [0, 0, 1, 5, 9, 0, 0]"] ;
351 -> 371 ;
372 [label="gini = 0.0\nsamples = 3\nvalue = [0, 0, 0, 3, 0, 0, 0]"] ;
371 -> 372 ;
373 [label="x[8] <= 1.5\ngini = 0.403\nsamples = 12\nvalue = [0, 0, 1, 2, 9, 0, 0]"] ;
371 -> 373 ;
374 [label="x[10] <= 1.5\ngini = 0.298\nsamples = 11\nvalue = [0, 0, 0, 2, 9, 0, 0]"] ;
373 -> 374 ;
375 [label="x[14] <= 0.5\ngini = 0.5\nsamples = 4\nvalue = [0, 0, 0, 2, 2, 0, 0]"] ;
374 -> 375 ;
376 [label="x[3] <= 77.5\ngini = 0.444\nsamples = 3\nvalue = [0, 0, 0, 2, 1, 0, 0]"] ;
375 -> 376 ;
377 [label="gini = 0.0\nsamples = 1\nvalue = [0, 0, 0, 0, 1, 0, 0]"] ;
376 -> 377 ;
378 [label="gini = 0.0\nsamples = 2\nvalue = [0, 0, 0, 2, 0, 0, 0]"] ;
376 -> 378 ;
379 [label="gini = 0.0\nsamples = 1\nvalue = [0, 0, 0, 0, 1, 0, 0]"] ;
375 -> 379 ;
380 [label="gini = 0.0\nsamples = 7\nvalue = [0, 0, 0, 0, 7, 0, 0]"] ;
374 -> 380 ;
381 [label="gini = 0.0\nsamples = 1\nvalue = [0, 0, 1, 0, 0, 0, 0]"] ;
373 -> 381 ;
382 [label="x[3] <= 97.519\ngini = 0.204\nsamples = 1006\nvalue = [0.0, 2.0, 37.0, 55.0, 895.0, 16.0, 1.0]"] ;
350 -> 382 ;
383 [label="x[3] <= 80.776\ngini = 0.193\nsamples = 991\nvalue = [0, 2, 37, 55, 888, 8, 1]"] ;
382 -> 383 ;
384 [label="x[3] <= 80.546\ngini = 0.293\nsamples = 480\nvalue = [0, 2, 29, 45, 400, 4, 0]"] ;
383 -> 384 ;
385 [label="x[2] <= 1.641\ngini = 0.277\nsamples = 473\nvalue = [0, 2, 25, 43, 399, 4, 0]"] ;
384 -> 385 ;
386 [label="x[13] <= 0.1\ngini = 0.256\nsamples = 462\nvalue = [0, 2, 21, 39, 396, 4, 0]"] ;
385 -> 386 ;
387 [label="x[1] <= 19.014\ngini = 0.202\nsamples = 391\nvalue = [0, 0, 11, 28, 348, 4, 0]"] ;
386 -> 387 ;
388 [label="gini = 0.656\nsamples = 8\nvalue = [0, 0, 2, 3, 3, 0, 0]"] ;
387 -> 388 ;
389 [label="gini = 0.184\nsamples = 383\nvalue = [0.0, 0.0, 9.0, 25.0, 345.0, 4.0, 0.0]"] ;
387 -> 389 ;
390 [label="x[6] <= 2.646\ngini = 0.498\nsamples = 71\nvalue = [0, 2, 10, 11, 48, 0, 0]"] ;
386 -> 390 ;
391 [label="gini = 0.434\nsamples = 63\nvalue = [0, 2, 5, 10, 46, 0, 0]"] ;
390 -> 391 ;
392 [label="gini = 0.531\nsamples = 8\nvalue = [0, 0, 5, 1, 2, 0, 0]"] ;
390 -> 392 ;
393 [label="x[12] <= 0.709\ngini = 0.661\nsamples = 11\nvalue = [0, 0, 4, 4, 3, 0, 0]"] ;
385 -> 393 ;
394 [label="x[14] <= 0.5\ngini = 0.5\nsamples = 8\nvalue = [0, 0, 4, 4, 0, 0, 0]"] ;
393 -> 394 ;
395 [label="gini = 0.32\nsamples = 5\nvalue = [0, 0, 1, 4, 0, 0, 0]"] ;
394 -> 395 ;
396 [label="gini = 0.0\nsamples = 3\nvalue = [0, 0, 3, 0, 0, 0, 0]"] ;
394 -> 396 ;
397 [label="gini = 0.0\nsamples = 3\nvalue = [0, 0, 0, 0, 3, 0, 0]"] ;
393 -> 397 ;
398 [label="x[3] <= 80.65\ngini = 0.571\nsamples = 7\nvalue = [0, 0, 4, 2, 1, 0, 0]"] ;
384 -> 398 ;
399 [label="x[14] <= 0.5\ngini = 0.32\nsamples = 5\nvalue = [0, 0, 4, 0, 1, 0, 0]"] ;
398 -> 399 ;
400 [label="x[1] <= 31.099\ngini = 0.5\nsamples = 2\nvalue = [0, 0, 1, 0, 1, 0, 0]"] ;
399 -> 400 ;
401 [label="gini = 0.0\nsamples = 1\nvalue = [0, 0, 0, 0, 1, 0, 0]"] ;
400 -> 401 ;
402 [label="gini = 0.0\nsamples = 1\nvalue = [0, 0, 1, 0, 0, 0, 0]"] ;
400 -> 402 ;
403 [label="gini = 0.0\nsamples = 3\nvalue = [0, 0, 3, 0, 0, 0, 0]"] ;
399 -> 403 ;
404 [label="gini = 0.0\nsamples = 2\nvalue = [0, 0, 0, 2, 0, 0, 0]"] ;
398 -> 404 ;
405 [label="x[7] <= 3.049\ngini = 0.087\nsamples = 511\nvalue = [0, 0, 8, 10, 488, 4, 1]"] ;
383 -> 405 ;
406 [label="x[1] <= 17.837\ngini = 0.084\nsamples = 509\nvalue = [0.0, 0.0, 7.0, 10.0, 487.0, 4.0, 1.0]"] ;
405 -> 406 ;
407 [label="x[10] <= 1.485\ngini = 0.5\nsamples = 2\nvalue = [0, 0, 0, 1, 1, 0, 0]"] ;
406 -> 407 ;
408 [label="gini = 0.0\nsamples = 1\nvalue = [0, 0, 0, 0, 1, 0, 0]"] ;
407 -> 408 ;
409 [label="gini = 0.0\nsamples = 1\nvalue = [0, 0, 0, 1, 0, 0, 0]"] ;
407 -> 409 ;
410 [label="x[0] <= 0.5\ngini = 0.081\nsamples = 507\nvalue = [0, 0, 7, 9, 486, 4, 1]"] ;
406 -> 410 ;
411 [label="x[1] <= 43.307\ngini = 0.06\nsamples = 460\nvalue = [0, 0, 6, 5, 446, 2, 1]"] ;
410 -> 411 ;
412 [label="gini = 0.053\nsamples = 449\nvalue = [0, 0, 5, 4, 437, 2, 1]"] ;
411 -> 412 ;
413 [label="gini = 0.314\nsamples = 11\nvalue = [0, 0, 1, 1, 9, 0, 0]"] ;
411 -> 413 ;
414 [label="x[10] <= 1.497\ngini = 0.266\nsamples = 47\nvalue = [0, 0, 1, 4, 40, 2, 0]"] ;
410 -> 414 ;
415 [label="gini = 0.642\nsamples = 9\nvalue = [0, 0, 0, 3, 4, 2, 0]"] ;
414 -> 415 ;
416 [label="gini = 0.101\nsamples = 38\nvalue = [0, 0, 1, 1, 36, 0, 0]"] ;
414 -> 416 ;
417 [label="x[0] <= 0.5\ngini = 0.5\nsamples = 2\nvalue = [0, 0, 1, 0, 1, 0, 0]"] ;
405 -> 417 ;
418 [label="gini = 0.0\nsamples = 1\nvalue = [0, 0, 1, 0, 0, 0, 0]"] ;
417 -> 418 ;
419 [label="gini = 0.0\nsamples = 1\nvalue = [0, 0, 0, 0, 1, 0, 0]"] ;
417 -> 419 ;
420 [label="x[1] <= 23.802\ngini = 0.498\nsamples = 15\nvalue = [0, 0, 0, 0, 7, 8, 0]"] ;
382 -> 420 ;
421 [label="gini = 0.0\nsamples = 5\nvalue = [0, 0, 0, 0, 5, 0, 0]"] ;
420 -> 421 ;
422 [label="x[15] <= 3.0\ngini = 0.32\nsamples = 10\nvalue = [0, 0, 0, 0, 2, 8, 0]"] ;
420 -> 422 ;
423 [label="gini = 0.0\nsamples = 7\nvalue = [0, 0, 0, 0, 0, 7, 0]"] ;
422 -> 423 ;
424 [label="x[3] <= 97.924\ngini = 0.444\nsamples = 3\nvalue = [0, 0, 0, 0, 2, 1, 0]"] ;
422 -> 424 ;
425 [label="gini = 0.0\nsamples = 1\nvalue = [0, 0, 0, 0, 0, 1, 0]"] ;
424 -> 425 ;
426 [label="gini = 0.0\nsamples = 2\nvalue = [0, 0, 0, 0, 2, 0, 0]"] ;
424 -> 426 ;
427 [label="x[3] <= 89.987\ngini = 0.627\nsamples = 4160\nvalue = [2, 79, 751, 2152, 1121, 53, 2]"] ;
349 -> 427 ;
428 [label="x[2] <= 1.749\ngini = 0.559\nsamples = 3005\nvalue = [2.0, 78.0, 727.0, 1821.0, 368.0, 7.0, 2.0]"] ;
427 -> 428 ;
429 [label="x[0] <= 0.5\ngini = 0.419\nsamples = 2011\nvalue = [1.0, 10.0, 204.0, 1489.0, 302.0, 3.0, 2.0]"] ;
428 -> 429 ;
430 [label="x[3] <= 81.964\ngini = 0.572\nsamples = 773\nvalue = [1.0, 3.0, 90.0, 436.0, 240.0, 1.0, 2.0]"] ;
429 -> 430 ;
431 [label="x[7] <= 1.407\ngini = 0.41\nsamples = 534\nvalue = [1, 2, 81, 399, 50, 1, 0]"] ;
430 -> 431 ;
432 [label="x[2] <= 1.731\ngini = 0.589\nsamples = 135\nvalue = [0, 0, 36, 75, 24, 0, 0]"] ;
431 -> 432 ;
433 [label="x[12] <= 2.796\ngini = 0.562\nsamples = 124\nvalue = [0, 0, 27, 74, 23, 0, 0]"] ;
432 -> 433 ;
434 [label="gini = 0.549\nsamples = 121\nvalue = [0, 0, 27, 74, 20, 0, 0]"] ;
433 -> 434 ;
435 [label="gini = 0.0\nsamples = 3\nvalue = [0, 0, 0, 0, 3, 0, 0]"] ;
433 -> 435 ;
436 [label="x[7] <= 1.107\ngini = 0.314\nsamples = 11\nvalue = [0, 0, 9, 1, 1, 0, 0]"] ;
432 -> 436 ;
437 [label="gini = 0.18\nsamples = 10\nvalue = [0, 0, 9, 1, 0, 0, 0]"] ;
436 -> 437 ;
438 [label="gini = 0.0\nsamples = 1\nvalue = [0, 0, 0, 0, 1, 0, 0]"] ;
436 -> 438 ;
439 [label="x[3] <= 78.052\ngini = 0.324\nsamples = 399\nvalue = [1, 2, 45, 324, 26, 1, 0]"] ;
431 -> 439 ;
440 [label="x[3] <= 76.423\ngini = 0.16\nsamples = 152\nvalue = [0, 0, 6, 139, 7, 0, 0]"] ;
439 -> 440 ;
441 [label="gini = 0.0\nsamples = 2\nvalue = [0, 0, 2, 0, 0, 0, 0]"] ;
440 -> 441 ;
442 [label="gini = 0.138\nsamples = 150\nvalue = [0, 0, 4, 139, 7, 0, 0]"] ;
440 -> 442 ;
443 [label="x[14] <= 0.5\ngini = 0.408\nsamples = 247\nvalue = [1, 2, 39, 185, 19, 1, 0]"] ;
439 -> 443 ;
444 [label="gini = 0.311\nsamples = 140\nvalue = [1, 0, 10, 115, 13, 1, 0]"] ;
443 -> 444 ;
445 [label="gini = 0.495\nsamples = 107\nvalue = [0.0, 2.0, 29.0, 70.0, 6.0, 0.0, 0.0]"] ;
443 -> 445 ;
446 [label="x[1] <= 23.903\ngini = 0.343\nsamples = 239\nvalue = [0.0, 1.0, 9.0, 37.0, 190.0, 0.0, 2.0]"] ;
430 -> 446 ;
447 [label="x[2] <= 1.7\ngini = 0.186\nsamples = 188\nvalue = [0.0, 0.0, 3.0, 14.0, 169.0, 0.0, 2.0]"] ;
446 -> 447 ;
448 [label="x[4] <= 0.5\ngini = 0.085\nsamples = 137\nvalue = [0, 0, 1, 3, 131, 0, 2]"] ;
447 -> 448 ;
449 [label="gini = 0.0\nsamples = 1\nvalue = [0, 0, 0, 0, 0, 0, 1]"] ;
448 -> 449 ;
450 [label="gini = 0.072\nsamples = 136\nvalue = [0, 0, 1, 3, 131, 0, 1]"] ;
448 -> 450 ;
451 [label="x[6] <= 2.942\ngini = 0.397\nsamples = 51\nvalue = [0, 0, 2, 11, 38, 0, 0]"] ;
447 -> 451 ;
452 [label="gini = 0.274\nsamples = 44\nvalue = [0, 0, 1, 6, 37, 0, 0]"] ;
451 -> 452 ;
453 [label="gini = 0.449\nsamples = 7\nvalue = [0, 0, 1, 5, 1, 0, 0]"] ;
451 -> 453 ;
454 [label="x[2] <= 1.68\ngini = 0.613\nsamples = 51\nvalue = [0, 1, 6, 23, 21, 0, 0]"] ;
446 -> 454 ;
455 [label="x[12] <= 2.849\ngini = 0.371\nsamples = 23\nvalue = [0, 1, 2, 2, 18, 0, 0]"] ;
454 -> 455 ;
456 [label="gini = 0.314\nsamples = 22\nvalue = [0, 0, 2, 2, 18, 0, 0]"] ;
455 -> 456 ;
457 [label="gini = 0.0\nsamples = 1\nvalue = [0, 1, 0, 0, 0, 0, 0]"] ;
455 -> 457 ;
458 [label="x[2] <= 1.738\ngini = 0.406\nsamples = 28\nvalue = [0, 0, 4, 21, 3, 0, 0]"] ;
454 -> 458 ;
459 [label="gini = 0.288\nsamples = 24\nvalue = [0, 0, 1, 20, 3, 0, 0]"] ;
458 -> 459 ;
460 [label="gini = 0.375\nsamples = 4\nvalue = [0, 0, 3, 1, 0, 0, 0]"] ;
458 -> 460 ;
461 [label="x[3] <= 87.787\ngini = 0.266\nsamples = 1238\nvalue = [0, 7, 114, 1053, 62, 2, 0]"] ;
429 -> 461 ;
462 [label="x[7] <= 1.691\ngini = 0.234\nsamples = 1190\nvalue = [0, 7, 111, 1035, 35, 2, 0]"] ;
461 -> 462 ;
463 [label="x[1] <= 23.074\ngini = 0.44\nsamples = 177\nvalue = [0, 2, 30, 128, 16, 1, 0]"] ;
462 -> 463 ;
464 [label="x[10] <= 2.052\ngini = 0.593\nsamples = 97\nvalue = [0, 2, 24, 55, 15, 1, 0]"] ;
463 -> 464 ;
465 [label="gini = 0.527\nsamples = 77\nvalue = [0, 2, 19, 49, 6, 1, 0]"] ;
464 -> 465 ;
466 [label="gini = 0.645\nsamples = 20\nvalue = [0, 0, 5, 6, 9, 0, 0]"] ;
464 -> 466 ;
467 [label="x[6] <= 1.916\ngini = 0.162\nsamples = 80\nvalue = [0, 0, 6, 73, 1, 0, 0]"] ;
463 -> 467 ;
468 [label="gini = 0.444\nsamples = 3\nvalue = [0, 0, 2, 1, 0, 0, 0]"] ;
467 -> 468 ;
469 [label="gini = 0.123\nsamples = 77\nvalue = [0, 0, 4, 72, 1, 0, 0]"] ;
467 -> 469 ;
470 [label="x[3] <= 77.355\ngini = 0.192\nsamples = 1013\nvalue = [0.0, 5.0, 81.0, 907.0, 19.0, 1.0, 0.0]"] ;
462 -> 470 ;
471 [label="x[3] <= 76.621\ngini = 0.667\nsamples = 3\nvalue = [0, 1, 0, 0, 1, 1, 0]"] ;
470 -> 471 ;
472 [label="gini = 0.0\nsamples = 1\nvalue = [0, 0, 0, 0, 1, 0, 0]"] ;
471 -> 472 ;
473 [label="gini = 0.5\nsamples = 2\nvalue = [0, 1, 0, 0, 0, 1, 0]"] ;
471 -> 473 ;
474 [label="x[4] <= 0.5\ngini = 0.187\nsamples = 1010\nvalue = [0, 4, 81, 907, 18, 0, 0]"] ;
470 -> 474 ;
475 [label="gini = 0.343\nsamples = 103\nvalue = [0.0, 2.0, 20.0, 81.0, 0.0, 0.0, 0.0]"] ;
474 -> 475 ;
476 [label="gini = 0.166\nsamples = 907\nvalue = [0.0, 2.0, 61.0, 826.0, 18.0, 0.0, 0.0]"] ;
474 -> 476 ;
477 [label="x[2] <= 1.681\ngini = 0.539\nsamples = 48\nvalue = [0, 0, 3, 18, 27, 0, 0]"] ;
461 -> 477 ;
478 [label="x[3] <= 88.838\ngini = 0.311\nsamples = 26\nvalue = [0, 0, 0, 5, 21, 0, 0]"] ;
477 -> 478 ;
479 [label="x[6] <= 2.229\ngini = 0.486\nsamples = 12\nvalue = [0, 0, 0, 5, 7, 0, 0]"] ;
478 -> 479 ;
480 [label="gini = 0.346\nsamples = 9\nvalue = [0, 0, 0, 2, 7, 0, 0]"] ;
479 -> 480 ;
481 [label="gini = 0.0\nsamples = 3\nvalue = [0, 0, 0, 3, 0, 0, 0]"] ;
479 -> 481 ;
482 [label="gini = 0.0\nsamples = 14\nvalue = [0, 0, 0, 0, 14, 0, 0]"] ;
478 -> 482 ;
483 [label="x[3] <= 89.66\ngini = 0.558\nsamples = 22\nvalue = [0, 0, 3, 13, 6, 0, 0]"] ;
477 -> 483 ;
484 [label="x[2] <= 1.706\ngini = 0.633\nsamples = 16\nvalue = [0, 0, 3, 7, 6, 0, 0]"] ;
483 -> 484 ;
485 [label="gini = 0.5\nsamples = 6\nvalue = [0, 0, 1, 1, 4, 0, 0]"] ;
484 -> 485 ;
486 [label="gini = 0.56\nsamples = 10\nvalue = [0, 0, 2, 6, 2, 0, 0]"] ;
484 -> 486 ;
487 [label="gini = 0.0\nsamples = 6\nvalue = [0, 0, 0, 6, 0, 0, 0]"] ;
483 -> 487 ;
488 [label="x[1] <= 22.009\ngini = 0.602\nsamples = 994\nvalue = [1, 68, 523, 332, 66, 4, 0]"] ;
428 -> 488 ;
489 [label="x[5] <= 0.5\ngini = 0.524\nsamples = 577\nvalue = [1, 44, 371, 135, 26, 0, 0]"] ;
488 -> 489 ;
490 [label="x[10] <= 2.659\ngini = 0.633\nsamples = 64\nvalue = [0, 9, 24, 29, 2, 0, 0]"] ;
489 -> 490 ;
491 [label="x[12] <= 1.744\ngini = 0.525\nsamples = 44\nvalue = [0, 6, 10, 28, 0, 0, 0]"] ;
490 -> 491 ;
492 [label="x[15] <= 2.5\ngini = 0.163\nsamples = 23\nvalue = [0, 1, 1, 21, 0, 0, 0]"] ;
491 -> 492 ;
493 [label="gini = 0.087\nsamples = 22\nvalue = [0, 0, 1, 21, 0, 0, 0]"] ;
492 -> 493 ;
494 [label="gini = 0.0\nsamples = 1\nvalue = [0, 1, 0, 0, 0, 0, 0]"] ;
492 -> 494 ;
495 [label="x[15] <= 3.0\ngini = 0.649\nsamples = 21\nvalue = [0, 5, 9, 7, 0, 0, 0]"] ;
491 -> 495 ;
496 [label="gini = 0.586\nsamples = 18\nvalue = [0, 2, 9, 7, 0, 0, 0]"] ;
495 -> 496 ;
497 [label="gini = 0.0\nsamples = 3\nvalue = [0, 3, 0, 0, 0, 0, 0]"] ;
495 -> 497 ;
498 [label="x[3] <= 83.5\ngini = 0.475\nsamples = 20\nvalue = [0, 3, 14, 1, 2, 0, 0]"] ;
490 -> 498 ;
499 [label="x[1] <= 21.5\ngini = 0.375\nsamples = 4\nvalue = [0, 3, 0, 0, 1, 0, 0]"] ;
498 -> 499 ;
500 [label="gini = 0.0\nsamples = 3\nvalue = [0, 3, 0, 0, 0, 0, 0]"] ;
499 -> 500 ;
501 [label="gini = 0.0\nsamples = 1\nvalue = [0, 0, 0, 0, 1, 0, 0]"] ;
499 -> 501 ;
502 [label="x[2] <= 1.755\ngini = 0.227\nsamples = 16\nvalue = [0, 0, 14, 1, 1, 0, 0]"] ;
498 -> 502 ;
503 [label="gini = 0.0\nsamples = 1\nvalue = [0, 0, 0, 1, 0, 0, 0]"] ;
502 -> 503 ;
504 [label="gini = 0.124\nsamples = 15\nvalue = [0, 0, 14, 0, 1, 0, 0]"] ;
502 -> 504 ;
505 [label="x[13] <= 0.973\ngini = 0.493\nsamples = 513\nvalue = [1, 35, 347, 106, 24, 0, 0]"] ;
489 -> 505 ;
506 [label="x[1] <= 18.877\ngini = 0.399\nsamples = 290\nvalue = [0, 13, 220, 41, 16, 0, 0]"] ;
505 -> 506 ;
507 [label="x[3] <= 86.982\ngini = 0.541\nsamples = 70\nvalue = [0, 2, 43, 19, 6, 0, 0]"] ;
506 -> 507 ;
508 [label="gini = 0.51\nsamples = 66\nvalue = [0, 2, 43, 16, 5, 0, 0]"] ;
507 -> 508 ;
509 [label="gini = 0.375\nsamples = 4\nvalue = [0, 0, 0, 3, 1, 0, 0]"] ;
507 -> 509 ;
510 [label="x[14] <= 0.5\ngini = 0.338\nsamples = 220\nvalue = [0, 11, 177, 22, 10, 0, 0]"] ;
506 -> 510 ;
511 [label="gini = 0.731\nsamples = 26\nvalue = [0, 7, 9, 6, 4, 0, 0]"] ;
510 -> 511 ;
512 [label="gini = 0.242\nsamples = 194\nvalue = [0, 4, 168, 16, 6, 0, 0]"] ;
510 -> 512 ;
513 [label="x[12] <= 1.732\ngini = 0.58\nsamples = 223\nvalue = [1, 22, 127, 65, 8, 0, 0]"] ;
505 -> 513 ;
514 [label="x[1] <= 19.34\ngini = 0.62\nsamples = 102\nvalue = [0, 12, 46, 41, 3, 0, 0]"] ;
513 -> 514 ;
515 [label="gini = 0.612\nsamples = 52\nvalue = [0, 8, 28, 14, 2, 0, 0]"] ;
514 -> 515 ;
516 [label="gini = 0.572\nsamples = 50\nvalue = [0, 4, 18, 27, 1, 0, 0]"] ;
514 -> 516 ;
517 [label="x[2] <= 1.815\ngini = 0.504\nsamples = 121\nvalue = [1, 10, 81, 24, 5, 0, 0]"] ;
513 -> 517 ;
518 [label="gini = 0.374\nsamples = 80\nvalue = [0, 4, 62, 12, 2, 0, 0]"] ;
517 -> 518 ;
519 [label="gini = 0.672\nsamples = 41\nvalue = [1, 6, 19, 12, 3, 0, 0]"] ;
517 -> 519 ;
520 [label="x[2] <= 1.8\ngini = 0.631\nsamples = 417\nvalue = [0.0, 24.0, 152.0, 197.0, 40.0, 4.0, 0.0]"] ;
488 -> 520 ;
521 [label="x[3] <= 80.069\ngini = 0.579\nsamples = 273\nvalue = [0, 11, 66, 161, 31, 4, 0]"] ;
520 -> 521 ;
522 [label="x[2] <= 1.764\ngini = 0.674\nsamples = 87\nvalue = [0, 9, 39, 28, 9, 2, 0]"] ;
521 -> 522 ;
523 [label="x[6] <= 2.256\ngini = 0.573\nsamples = 56\nvalue = [0, 2, 33, 14, 7, 0, 0]"] ;
522 -> 523 ;
524 [label="gini = 0.438\nsamples = 36\nvalue = [0, 0, 26, 6, 4, 0, 0]"] ;
523 -> 524 ;
525 [label="gini = 0.685\nsamples = 20\nvalue = [0, 2, 7, 8, 3, 0, 0]"] ;
523 -> 525 ;
526 [label="x[4] <= 0.5\ngini = 0.699\nsamples = 31\nvalue = [0, 7, 6, 14, 2, 2, 0]"] ;
522 -> 526 ;
527 [label="gini = 0.278\nsamples = 6\nvalue = [0, 5, 1, 0, 0, 0, 0]"] ;
526 -> 527 ;
528 [label="gini = 0.627\nsamples = 25\nvalue = [0.0, 2.0, 5.0, 14.0, 2.0, 2.0, 0.0]"] ;
526 -> 528 ;
529 [label="x[4] <= 0.5\ngini = 0.453\nsamples = 186\nvalue = [0.0, 2.0, 27.0, 133.0, 22.0, 2.0, 0.0]"] ;
521 -> 529 ;
530 [label="x[3] <= 86.5\ngini = 0.609\nsamples = 19\nvalue = [0, 1, 10, 6, 2, 0, 0]"] ;
529 -> 530 ;
531 [label="gini = 0.612\nsamples = 11\nvalue = [0, 1, 3, 6, 1, 0, 0]"] ;
530 -> 531 ;
532 [label="gini = 0.219\nsamples = 8\nvalue = [0, 0, 7, 0, 1, 0, 0]"] ;
530 -> 532 ;
533 [label="x[1] <= 22.948\ngini = 0.397\nsamples = 167\nvalue = [0, 1, 17, 127, 20, 2, 0]"] ;
529 -> 533 ;
534 [label="gini = 0.499\nsamples = 21\nvalue = [0, 0, 0, 10, 11, 0, 0]"] ;
533 -> 534 ;
535 [label="gini = 0.34\nsamples = 146\nvalue = [0, 1, 17, 117, 9, 2, 0]"] ;
533 -> 535 ;
536 [label="x[2] <= 1.83\ngini = 0.569\nsamples = 144\nvalue = [0, 13, 86, 36, 9, 0, 0]"] ;
520 -> 536 ;
537 [label="x[1] <= 22.684\ngini = 0.362\nsamples = 70\nvalue = [0, 1, 55, 8, 6, 0, 0]"] ;
536 -> 537 ;
538 [label="x[2] <= 1.81\ngini = 0.375\nsamples = 4\nvalue = [0, 0, 1, 0, 3, 0, 0]"] ;
537 -> 538 ;
539 [label="gini = 0.0\nsamples = 3\nvalue = [0, 0, 0, 0, 3, 0, 0]"] ;
538 -> 539 ;
540 [label="gini = 0.0\nsamples = 1\nvalue = [0, 0, 1, 0, 0, 0, 0]"] ;
538 -> 540 ;
541 [label="x[3] <= 88.019\ngini = 0.314\nsamples = 66\nvalue = [0, 1, 54, 8, 3, 0, 0]"] ;
537 -> 541 ;
542 [label="gini = 0.245\nsamples = 59\nvalue = [0, 1, 51, 4, 3, 0, 0]"] ;
541 -> 542 ;
543 [label="gini = 0.49\nsamples = 7\nvalue = [0, 0, 3, 4, 0, 0, 0]"] ;
541 -> 543 ;
544 [label="x[13] <= 1.949\ngini = 0.653\nsamples = 74\nvalue = [0, 12, 31, 28, 3, 0, 0]"] ;
536 -> 544 ;
545 [label="x[7] <= 1.81\ngini = 0.609\nsamples = 67\nvalue = [0, 8, 31, 27, 1, 0, 0]"] ;
544 -> 545 ;
546 [label="gini = 0.498\nsamples = 15\nvalue = [0, 2, 3, 10, 0, 0, 0]"] ;
545 -> 546 ;
547 [label="gini = 0.589\nsamples = 52\nvalue = [0, 6, 28, 17, 1, 0, 0]"] ;
545 -> 547 ;
548 [label="x[2] <= 1.835\ngini = 0.571\nsamples = 7\nvalue = [0, 4, 0, 1, 2, 0, 0]"] ;
544 -> 548 ;
549 [label="gini = 0.444\nsamples = 3\nvalue = [0, 0, 0, 1, 2, 0, 0]"] ;
548 -> 549 ;
550 [label="gini = 0.0\nsamples = 4\nvalue = [0, 4, 0, 0, 0, 0, 0]"] ;
548 -> 550 ;
551 [label="x[2] <= 1.793\ngini = 0.491\nsamples = 1155\nvalue = [0, 1, 24, 331, 753, 46, 0]"] ;
427 -> 551 ;
552 [label="x[1] <= 24.001\ngini = 0.322\nsamples = 824\nvalue = [0, 0, 7, 112, 668, 37, 0]"] ;
551 -> 552 ;
553 [label="x[14] <= 0.5\ngini = 0.199\nsamples = 604\nvalue = [0, 0, 6, 52, 538, 8, 0]"] ;
552 -> 553 ;
554 [label="x[8] <= 1.5\ngini = 0.081\nsamples = 405\nvalue = [0, 0, 1, 10, 388, 6, 0]"] ;
553 -> 554 ;
555 [label="x[6] <= 2.954\ngini = 0.06\nsamples = 390\nvalue = [0, 0, 0, 8, 378, 4, 0]"] ;
554 -> 555 ;
556 [label="x[6] <= 1.976\ngini = 0.052\nsamples = 380\nvalue = [0, 0, 0, 6, 370, 4, 0]"] ;
555 -> 556 ;
557 [label="gini = 0.298\nsamples = 11\nvalue = [0, 0, 0, 2, 9, 0, 0]"] ;
556 -> 557 ;
558 [label="gini = 0.043\nsamples = 369\nvalue = [0, 0, 0, 4, 361, 4, 0]"] ;
556 -> 558 ;
559 [label="x[2] <= 1.775\ngini = 0.32\nsamples = 10\nvalue = [0, 0, 0, 2, 8, 0, 0]"] ;
555 -> 559 ;
560 [label="gini = 0.198\nsamples = 9\nvalue = [0, 0, 0, 1, 8, 0, 0]"] ;
559 -> 560 ;
561 [label="gini = 0.0\nsamples = 1\nvalue = [0, 0, 0, 1, 0, 0, 0]"] ;
559 -> 561 ;
562 [label="x[10] <= 1.5\ngini = 0.516\nsamples = 15\nvalue = [0, 0, 1, 2, 10, 2, 0]"] ;
554 -> 562 ;
563 [label="gini = 0.0\nsamples = 2\nvalue = [0, 0, 0, 0, 0, 2, 0]"] ;
562 -> 563 ;
564 [label="x[8] <= 2.5\ngini = 0.379\nsamples = 13\nvalue = [0, 0, 1, 2, 10, 0, 0]"] ;
562 -> 564 ;
565 [label="gini = 0.48\nsamples = 5\nvalue = [0, 0, 0, 2, 3, 0, 0]"] ;
564 -> 565 ;
566 [label="gini = 0.219\nsamples = 8\nvalue = [0, 0, 1, 0, 7, 0, 0]"] ;
564 -> 566 ;
567 [label="x[3] <= 89.999\ngini = 0.387\nsamples = 199\nvalue = [0, 0, 5, 42, 150, 2, 0]"] ;
553 -> 567 ;
568 [label="x[7] <= 1.872\ngini = 0.693\nsamples = 19\nvalue = [0, 0, 5, 7, 6, 1, 0]"] ;
567 -> 568 ;
569 [label="x[12] <= 0.653\ngini = 0.444\nsamples = 9\nvalue = [0, 0, 0, 3, 6, 0, 0]"] ;
568 -> 569 ;
570 [label="gini = 0.245\nsamples = 7\nvalue = [0, 0, 0, 1, 6, 0, 0]"] ;
569 -> 570 ;
571 [label="gini = 0.0\nsamples = 2\nvalue = [0, 0, 0, 2, 0, 0, 0]"] ;
569 -> 571 ;
572 [label="x[2] <= 1.771\ngini = 0.58\nsamples = 10\nvalue = [0, 0, 5, 4, 0, 1, 0]"] ;
568 -> 572 ;
573 [label="gini = 0.5\nsamples = 6\nvalue = [0, 0, 1, 4, 0, 1, 0]"] ;
572 -> 573 ;
574 [label="gini = 0.0\nsamples = 4\nvalue = [0, 0, 4, 0, 0, 0, 0]"] ;
572 -> 574 ;
575 [label="x[6] <= 2.957\ngini = 0.322\nsamples = 180\nvalue = [0, 0, 0, 35, 144, 1, 0]"] ;
567 -> 575 ;
576 [label="x[0] <= 0.5\ngini = 0.298\nsamples = 166\nvalue = [0, 0, 0, 29, 136, 1, 0]"] ;
575 -> 576 ;
577 [label="gini = 0.0\nsamples = 26\nvalue = [0, 0, 0, 0, 26, 0, 0]"] ;
576 -> 577 ;
578 [label="gini = 0.34\nsamples = 140\nvalue = [0.0, 0.0, 0.0, 29.0, 110.0, 1.0, 0.0]"] ;
576 -> 578 ;
579 [label="x[14] <= 1.5\ngini = 0.49\nsamples = 14\nvalue = [0, 0, 0, 6, 8, 0, 0]"] ;
575 -> 579 ;
580 [label="gini = 0.444\nsamples = 9\nvalue = [0, 0, 0, 6, 3, 0, 0]"] ;
579 -> 580 ;
581 [label="gini = 0.0\nsamples = 5\nvalue = [0, 0, 0, 0, 5, 0, 0]"] ;
579 -> 581 ;
582 [label="x[10] <= 1.123\ngini = 0.559\nsamples = 220\nvalue = [0.0, 0.0, 1.0, 60.0, 130.0, 29.0, 0.0]"] ;
552 -> 582 ;
583 [label="x[3] <= 97.902\ngini = 0.624\nsamples = 44\nvalue = [0, 0, 0, 10, 12, 22, 0]"] ;
582 -> 583 ;
584 [label="x[1] <= 31.282\ngini = 0.628\nsamples = 23\nvalue = [0, 0, 0, 9, 10, 4, 0]"] ;
583 -> 584 ;
585 [label="x[1] <= 26.359\ngini = 0.314\nsamples = 11\nvalue = [0, 0, 0, 1, 9, 1, 0]"] ;
584 -> 585 ;
586 [label="gini = 0.667\nsamples = 3\nvalue = [0, 0, 0, 1, 1, 1, 0]"] ;
585 -> 586 ;
587 [label="gini = 0.0\nsamples = 8\nvalue = [0, 0, 0, 0, 8, 0, 0]"] ;
585 -> 587 ;
588 [label="x[2] <= 1.665\ngini = 0.486\nsamples = 12\nvalue = [0, 0, 0, 8, 1, 3, 0]"] ;
584 -> 588 ;
589 [label="gini = 0.0\nsamples = 3\nvalue = [0, 0, 0, 0, 0, 3, 0]"] ;
588 -> 589 ;
590 [label="gini = 0.198\nsamples = 9\nvalue = [0, 0, 0, 8, 1, 0, 0]"] ;
588 -> 590 ;
591 [label="x[1] <= 32.872\ngini = 0.254\nsamples = 21\nvalue = [0, 0, 0, 1, 2, 18, 0]"] ;
583 -> 591 ;
592 [label="gini = 0.0\nsamples = 16\nvalue = [0, 0, 0, 0, 0, 16, 0]"] ;
591 -> 592 ;
593 [label="x[6] <= 2.421\ngini = 0.64\nsamples = 5\nvalue = [0, 0, 0, 1, 2, 2, 0]"] ;
591 -> 593 ;
594 [label="gini = 0.444\nsamples = 3\nvalue = [0, 0, 0, 1, 2, 0, 0]"] ;
593 -> 594 ;
595 [label="gini = 0.0\nsamples = 2\nvalue = [0, 0, 0, 0, 0, 2, 0]"] ;
593 -> 595 ;
596 [label="x[1] <= 35.716\ngini = 0.468\nsamples = 176\nvalue = [0.0, 0.0, 1.0, 50.0, 118.0, 7.0, 0.0]"] ;
582 -> 596 ;
597 [label="x[2] <= 1.693\ngini = 0.524\nsamples = 129\nvalue = [0, 0, 1, 44, 77, 7, 0]"] ;
596 -> 597 ;
598 [label="x[1] <= 30.861\ngini = 0.383\nsamples = 64\nvalue = [0, 0, 0, 10, 49, 5, 0]"] ;
597 -> 598 ;
599 [label="gini = 0.101\nsamples = 38\nvalue = [0, 0, 0, 1, 36, 1, 0]"] ;
598 -> 599 ;
600 [label="gini = 0.607\nsamples = 26\nvalue = [0, 0, 0, 9, 13, 4, 0]"] ;
598 -> 600 ;
601 [label="x[7] <= 2.727\ngini = 0.54\nsamples = 65\nvalue = [0, 0, 1, 34, 28, 2, 0]"] ;
597 -> 601 ;
602 [label="gini = 0.18\nsamples = 20\nvalue = [0, 0, 0, 18, 2, 0, 0]"] ;
601 -> 602 ;
603 [label="gini = 0.537\nsamples = 45\nvalue = [0.0, 0.0, 1.0, 16.0, 26.0, 2.0, 0.0]"] ;
601 -> 603 ;
604 [label="x[1] <= 50.011\ngini = 0.223\nsamples = 47\nvalue = [0.0, 0.0, 0.0, 6.0, 41.0, 0.0, 0.0]"] ;
596 -> 604 ;
605 [label="x[6] <= 1.913\ngini = 0.162\nsamples = 45\nvalue = [0, 0, 0, 4, 41, 0, 0]"] ;
604 -> 605 ;
606 [label="gini = 0.0\nsamples = 1\nvalue = [0, 0, 0, 1, 0, 0, 0]"] ;
605 -> 606 ;
607 [label="gini = 0.127\nsamples = 44\nvalue = [0, 0, 0, 3, 41, 0, 0]"] ;
605 -> 607 ;
608 [label="gini = 0.0\nsamples = 2\nvalue = [0, 0, 0, 2, 0, 0, 0]"] ;
604 -> 608 ;
609 [label="x[14] <= 0.5\ngini = 0.493\nsamples = 331\nvalue = [0.0, 1.0, 17.0, 219.0, 85.0, 9.0, 0.0]"] ;
551 -> 609 ;
610 [label="x[12] <= 1.987\ngini = 0.459\nsamples = 64\nvalue = [0, 0, 0, 19, 43, 2, 0]"] ;
609 -> 610 ;
611 [label="x[12] <= 0.631\ngini = 0.551\nsamples = 33\nvalue = [0, 0, 0, 17, 14, 2, 0]"] ;
610 -> 611 ;
612 [label="x[1] <= 19.869\ngini = 0.298\nsamples = 11\nvalue = [0, 0, 0, 2, 9, 0, 0]"] ;
611 -> 612 ;
613 [label="gini = 0.0\nsamples = 1\nvalue = [0, 0, 0, 1, 0, 0, 0]"] ;
612 -> 613 ;
614 [label="x[1] <= 22.968\ngini = 0.18\nsamples = 10\nvalue = [0, 0, 0, 1, 9, 0, 0]"] ;
612 -> 614 ;
615 [label="gini = 0.0\nsamples = 7\nvalue = [0, 0, 0, 0, 7, 0, 0]"] ;
614 -> 615 ;
616 [label="gini = 0.444\nsamples = 3\nvalue = [0, 0, 0, 1, 2, 0, 0]"] ;
614 -> 616 ;
617 [label="x[3] <= 97.093\ngini = 0.475\nsamples = 22\nvalue = [0.0, 0.0, 0.0, 15.0, 5.0, 2.0, 0.0]"] ;
611 -> 617 ;
618 [label="x[12] <= 1.499\ngini = 0.153\nsamples = 12\nvalue = [0, 0, 0, 11, 1, 0, 0]"] ;
617 -> 618 ;
619 [label="gini = 0.0\nsamples = 10\nvalue = [0, 0, 0, 10, 0, 0, 0]"] ;
618 -> 619 ;
620 [label="gini = 0.5\nsamples = 2\nvalue = [0, 0, 0, 1, 1, 0, 0]"] ;
618 -> 620 ;
621 [label="x[1] <= 23.515\ngini = 0.64\nsamples = 10\nvalue = [0, 0, 0, 4, 4, 2, 0]"] ;
617 -> 621 ;
622 [label="gini = 0.32\nsamples = 5\nvalue = [0, 0, 0, 1, 4, 0, 0]"] ;
621 -> 622 ;
623 [label="gini = 0.48\nsamples = 5\nvalue = [0, 0, 0, 3, 0, 2, 0]"] ;
621 -> 623 ;
624 [label="x[1] <= 17.5\ngini = 0.121\nsamples = 31\nvalue = [0, 0, 0, 2, 29, 0, 0]"] ;
610 -> 624 ;
625 [label="x[11] <= 0.5\ngini = 0.5\nsamples = 2\nvalue = [0, 0, 0, 1, 1, 0, 0]"] ;
624 -> 625 ;
626 [label="gini = 0.0\nsamples = 1\nvalue = [0, 0, 0, 1, 0, 0, 0]"] ;
625 -> 626 ;
627 [label="gini = 0.0\nsamples = 1\nvalue = [0, 0, 0, 0, 1, 0, 0]"] ;
625 -> 627 ;
628 [label="x[2] <= 1.847\ngini = 0.067\nsamples = 29\nvalue = [0, 0, 0, 1, 28, 0, 0]"] ;
624 -> 628 ;
629 [label="gini = 0.0\nsamples = 26\nvalue = [0, 0, 0, 0, 26, 0, 0]"] ;
628 -> 629 ;
630 [label="x[15] <= 3.0\ngini = 0.444\nsamples = 3\nvalue = [0, 0, 0, 1, 2, 0, 0]"] ;
628 -> 630 ;
631 [label="gini = 0.0\nsamples = 2\nvalue = [0, 0, 0, 0, 2, 0, 0]"] ;
630 -> 631 ;
632 [label="gini = 0.0\nsamples = 1\nvalue = [0, 0, 0, 1, 0, 0, 0]"] ;
630 -> 632 ;
633 [label="x[2] <= 1.85\ngini = 0.409\nsamples = 267\nvalue = [0, 1, 17, 200, 42, 7, 0]"] ;
609 -> 633 ;
634 [label="x[3] <= 90.762\ngini = 0.307\nsamples = 198\nvalue = [0, 0, 11, 163, 22, 2, 0]"] ;
633 -> 634 ;
635 [label="x[1] <= 35.728\ngini = 0.609\nsamples = 27\nvalue = [0, 0, 8, 14, 5, 0, 0]"] ;
634 -> 635 ;
636 [label="x[12] <= 0.164\ngini = 0.57\nsamples = 25\nvalue = [0.0, 0.0, 8.0, 14.0, 3.0, 0.0, 0.0]"] ;
635 -> 636 ;
637 [label="gini = 0.5\nsamples = 6\nvalue = [0, 0, 4, 1, 1, 0, 0]"] ;
636 -> 637 ;
638 [label="gini = 0.476\nsamples = 19\nvalue = [0, 0, 4, 13, 2, 0, 0]"] ;
636 -> 638 ;
639 [label="gini = 0.0\nsamples = 2\nvalue = [0, 0, 0, 0, 2, 0, 0]"] ;
635 -> 639 ;
640 [label="x[12] <= 2.19\ngini = 0.23\nsamples = 171\nvalue = [0, 0, 3, 149, 17, 2, 0]"] ;
634 -> 640 ;
641 [label="x[0] <= 0.5\ngini = 0.179\nsamples = 155\nvalue = [0, 0, 3, 140, 10, 2, 0]"] ;
640 -> 641 ;
642 [label="gini = 0.0\nsamples = 2\nvalue = [0, 0, 0, 0, 2, 0, 0]"] ;
641 -> 642 ;
643 [label="gini = 0.159\nsamples = 153\nvalue = [0, 0, 3, 140, 8, 2, 0]"] ;
641 -> 643 ;
644 [label="x[10] <= 2.398\ngini = 0.492\nsamples = 16\nvalue = [0, 0, 0, 9, 7, 0, 0]"] ;
640 -> 644 ;
645 [label="gini = 0.0\nsamples = 5\nvalue = [0, 0, 0, 5, 0, 0, 0]"] ;
644 -> 645 ;
646 [label="gini = 0.463\nsamples = 11\nvalue = [0, 0, 0, 4, 7, 0, 0]"] ;
644 -> 646 ;
647 [label="x[13] <= 1.61\ngini = 0.615\nsamples = 69\nvalue = [0, 1, 6, 37, 20, 5, 0]"] ;
633 -> 647 ;
648 [label="x[1] <= 24.465\ngini = 0.59\nsamples = 61\nvalue = [0, 1, 6, 36, 13, 5, 0]"] ;
647 -> 648 ;
649 [label="x[3] <= 96.973\ngini = 0.726\nsamples = 31\nvalue = [0, 1, 5, 11, 10, 4, 0]"] ;
648 -> 649 ;
650 [label="gini = 0.663\nsamples = 26\nvalue = [0, 1, 5, 11, 9, 0, 0]"] ;
649 -> 650 ;
651 [label="gini = 0.32\nsamples = 5\nvalue = [0, 0, 0, 0, 1, 4, 0]"] ;
649 -> 651 ;
652 [label="x[1] <= 37.5\ngini = 0.293\nsamples = 30\nvalue = [0, 0, 1, 25, 3, 1, 0]"] ;
648 -> 652 ;
653 [label="gini = 0.199\nsamples = 28\nvalue = [0, 0, 1, 25, 1, 1, 0]"] ;
652 -> 653 ;
654 [label="gini = 0.0\nsamples = 2\nvalue = [0, 0, 0, 0, 2, 0, 0]"] ;
652 -> 654 ;
655 [label="x[3] <= 93.759\ngini = 0.219\nsamples = 8\nvalue = [0, 0, 0, 1, 7, 0, 0]"] ;
647 -> 655 ;
656 [label="gini = 0.0\nsamples = 5\nvalue = [0, 0, 0, 0, 5, 0, 0]"] ;
655 -> 656 ;
657 [label="x[1] <= 21.774\ngini = 0.444\nsamples = 3\nvalue = [0, 0, 0, 1, 2, 0, 0]"] ;
655 -> 657 ;
658 [label="gini = 0.0\nsamples = 2\nvalue = [0, 0, 0, 0, 2, 0, 0]"] ;
657 -> 658 ;
659 [label="gini = 0.0\nsamples = 1\nvalue = [0, 0, 0, 1, 0, 0, 0]"] ;
657 -> 659 ;
660 [label="x[0] <= 0.5\ngini = 0.583\nsamples = 8064\nvalue = [1, 0, 0, 20, 825, 3179, 4039]"] ;
0 -> 660 [labeldistance=2.5, labelangle=-45, headlabel="False"] ;
661 [label="x[6] <= 2.986\ngini = 0.016\nsamples = 4067\nvalue = [0, 0, 0, 1, 28, 3, 4035]"] ;
660 -> 661 ;
662 [label="x[3] <= 101.343\ngini = 0.177\nsamples = 21\nvalue = [0, 0, 0, 1, 19, 1, 0]"] ;
661 -> 662 ;
663 [label="gini = 0.0\nsamples = 1\nvalue = [0, 0, 0, 1, 0, 0, 0]"] ;
662 -> 663 ;
664 [label="x[7] <= 3.454\ngini = 0.095\nsamples = 20\nvalue = [0, 0, 0, 0, 19, 1, 0]"] ;
662 -> 664 ;
665 [label="gini = 0.0\nsamples = 19\nvalue = [0, 0, 0, 0, 19, 0, 0]"] ;
664 -> 665 ;
666 [label="gini = 0.0\nsamples = 1\nvalue = [0, 0, 0, 0, 0, 1, 0]"] ;
664 -> 666 ;
667 [label="x[15] <= 3.0\ngini = 0.005\nsamples = 4046\nvalue = [0.0, 0.0, 0.0, 0.0, 9.0, 2.0, 4035.0]"] ;
661 -> 667 ;
668 [label="x[7] <= 2.0\ngini = 0.004\nsamples = 4044\nvalue = [0, 0, 0, 0, 8, 1, 4035]"] ;
667 -> 668 ;
669 [label="gini = 0.0\nsamples = 1\nvalue = [0, 0, 0, 0, 0, 1, 0]"] ;
668 -> 669 ;
670 [label="x[10] <= 2.995\ngini = 0.004\nsamples = 4043\nvalue = [0, 0, 0, 0, 8, 0, 4035]"] ;
668 -> 670 ;
671 [label="x[3] <= 102.136\ngini = 0.003\nsamples = 4041\nvalue = [0, 0, 0, 0, 7, 0, 4034]"] ;
670 -> 671 ;
672 [label="x[2] <= 1.647\ngini = 0.097\nsamples = 39\nvalue = [0, 0, 0, 0, 2, 0, 37]"] ;
671 -> 672 ;
673 [label="gini = 0.0\nsamples = 34\nvalue = [0, 0, 0, 0, 0, 0, 34]"] ;
672 -> 673 ;
674 [label="x[10] <= 1.276\ngini = 0.48\nsamples = 5\nvalue = [0, 0, 0, 0, 2, 0, 3]"] ;
672 -> 674 ;
675 [label="x[12] <= 0.055\ngini = 0.444\nsamples = 3\nvalue = [0, 0, 0, 0, 2, 0, 1]"] ;
674 -> 675 ;
676 [label="gini = 0.0\nsamples = 2\nvalue = [0, 0, 0, 0, 2, 0, 0]"] ;
675 -> 676 ;
677 [label="gini = 0.0\nsamples = 1\nvalue = [0, 0, 0, 0, 0, 0, 1]"] ;
675 -> 677 ;
678 [label="gini = 0.0\nsamples = 2\nvalue = [0, 0, 0, 0, 0, 0, 2]"] ;
674 -> 678 ;
679 [label="x[13] <= 0.988\ngini = 0.002\nsamples = 4002\nvalue = [0, 0, 0, 0, 5, 0, 3997]"] ;
671 -> 679 ;
680 [label="x[3] <= 105.415\ngini = 0.002\nsamples = 3969\nvalue = [0, 0, 0, 0, 4, 0, 3965]"] ;
679 -> 680 ;
681 [label="x[3] <= 105.383\ngini = 0.01\nsamples = 811\nvalue = [0, 0, 0, 0, 4, 0, 807]"] ;
680 -> 681 ;
682 [label="gini = 0.007\nsamples = 808\nvalue = [0, 0, 0, 0, 3, 0, 805]"] ;
681 -> 682 ;
683 [label="gini = 0.444\nsamples = 3\nvalue = [0, 0, 0, 0, 1, 0, 2]"] ;
681 -> 683 ;
684 [label="gini = 0.0\nsamples = 3158\nvalue = [0, 0, 0, 0, 0, 0, 3158]"] ;
680 -> 684 ;
685 [label="x[10] <= 2.843\ngini = 0.059\nsamples = 33\nvalue = [0, 0, 0, 0, 1, 0, 32]"] ;
679 -> 685 ;
686 [label="gini = 0.0\nsamples = 32\nvalue = [0, 0, 0, 0, 0, 0, 32]"] ;
685 -> 686 ;
687 [label="gini = 0.0\nsamples = 1\nvalue = [0, 0, 0, 0, 1, 0, 0]"] ;
685 -> 687 ;
688 [label="x[3] <= 108.488\ngini = 0.5\nsamples = 2\nvalue = [0, 0, 0, 0, 1, 0, 1]"] ;
670 -> 688 ;
689 [label="gini = 0.0\nsamples = 1\nvalue = [0, 0, 0, 0, 0, 0, 1]"] ;
688 -> 689 ;
690 [label="gini = 0.0\nsamples = 1\nvalue = [0, 0, 0, 0, 1, 0, 0]"] ;
688 -> 690 ;
691 [label="x[10] <= 1.855\ngini = 0.5\nsamples = 2\nvalue = [0, 0, 0, 0, 1, 1, 0]"] ;
667 -> 691 ;
692 [label="gini = 0.0\nsamples = 1\nvalue = [0, 0, 0, 0, 0, 1, 0]"] ;
691 -> 692 ;
693 [label="gini = 0.0\nsamples = 1\nvalue = [0, 0, 0, 0, 1, 0, 0]"] ;
691 -> 693 ;
694 [label="x[1] <= 22.22\ngini = 0.329\nsamples = 3997\nvalue = [1, 0, 0, 19, 797, 3176, 4]"] ;
660 -> 694 ;
695 [label="x[3] <= 115.428\ngini = 0.304\nsamples = 607\nvalue = [0.0, 0.0, 0.0, 3.0, 495.0, 107.0, 2.0]"] ;
694 -> 695 ;
696 [label="x[2] <= 1.697\ngini = 0.159\nsamples = 521\nvalue = [0, 0, 0, 3, 476, 41, 1]"] ;
695 -> 696 ;
697 [label="x[10] <= 1.952\ngini = 0.5\nsamples = 42\nvalue = [0, 0, 0, 0, 21, 21, 0]"] ;
696 -> 697 ;
698 [label="x[7] <= 2.923\ngini = 0.34\nsamples = 23\nvalue = [0, 0, 0, 0, 5, 18, 0]"] ;
697 -> 698 ;
699 [label="gini = 0.0\nsamples = 15\nvalue = [0, 0, 0, 0, 0, 15, 0]"] ;
698 -> 699 ;
700 [label="x[2] <= 1.645\ngini = 0.469\nsamples = 8\nvalue = [0, 0, 0, 0, 5, 3, 0]"] ;
698 -> 700 ;
701 [label="gini = 0.0\nsamples = 4\nvalue = [0, 0, 0, 0, 4, 0, 0]"] ;
700 -> 701 ;
702 [label="x[12] <= 0.963\ngini = 0.375\nsamples = 4\nvalue = [0, 0, 0, 0, 1, 3, 0]"] ;
700 -> 702 ;
703 [label="gini = 0.0\nsamples = 3\nvalue = [0, 0, 0, 0, 0, 3, 0]"] ;
702 -> 703 ;
704 [label="gini = 0.0\nsamples = 1\nvalue = [0, 0, 0, 0, 1, 0, 0]"] ;
702 -> 704 ;
705 [label="x[6] <= 2.491\ngini = 0.266\nsamples = 19\nvalue = [0, 0, 0, 0, 16, 3, 0]"] ;
697 -> 705 ;
706 [label="gini = 0.0\nsamples = 14\nvalue = [0, 0, 0, 0, 14, 0, 0]"] ;
705 -> 706 ;
707 [label="x[2] <= 1.659\ngini = 0.48\nsamples = 5\nvalue = [0, 0, 0, 0, 2, 3, 0]"] ;
705 -> 707 ;
708 [label="gini = 0.0\nsamples = 2\nvalue = [0, 0, 0, 0, 2, 0, 0]"] ;
707 -> 708 ;
709 [label="gini = 0.0\nsamples = 3\nvalue = [0, 0, 0, 0, 0, 3, 0]"] ;
707 -> 709 ;
710 [label="x[6] <= 2.194\ngini = 0.096\nsamples = 479\nvalue = [0.0, 0.0, 0.0, 3.0, 455.0, 20.0, 1.0]"] ;
696 -> 710 ;
711 [label="x[3] <= 111.965\ngini = 0.052\nsamples = 410\nvalue = [0, 0, 0, 2, 399, 9, 0]"] ;
710 -> 711 ;
712 [label="x[7] <= 3.5\ngini = 0.031\nsamples = 387\nvalue = [0, 0, 0, 2, 381, 4, 0]"] ;
711 -> 712 ;
713 [label="x[1] <= 17.986\ngini = 0.026\nsamples = 385\nvalue = [0, 0, 0, 2, 380, 3, 0]"] ;
712 -> 713 ;
714 [label="x[1] <= 17.547\ngini = 0.346\nsamples = 9\nvalue = [0, 0, 0, 2, 7, 0, 0]"] ;
713 -> 714 ;
715 [label="gini = 0.0\nsamples = 6\nvalue = [0, 0, 0, 0, 6, 0, 0]"] ;
714 -> 715 ;
716 [label="gini = 0.444\nsamples = 3\nvalue = [0, 0, 0, 2, 1, 0, 0]"] ;
714 -> 716 ;
717 [label="x[2] <= 1.717\ngini = 0.016\nsamples = 376\nvalue = [0.0, 0.0, 0.0, 0.0, 373.0, 3.0, 0.0]"] ;
713 -> 717 ;
718 [label="gini = 0.172\nsamples = 21\nvalue = [0, 0, 0, 0, 19, 2, 0]"] ;
717 -> 718 ;
719 [label="gini = 0.006\nsamples = 355\nvalue = [0, 0, 0, 0, 354, 1, 0]"] ;
717 -> 719 ;
720 [label="x[2] <= 1.82\ngini = 0.5\nsamples = 2\nvalue = [0, 0, 0, 0, 1, 1, 0]"] ;
712 -> 720 ;
721 [label="gini = 0.0\nsamples = 1\nvalue = [0, 0, 0, 0, 1, 0, 0]"] ;
720 -> 721 ;
722 [label="gini = 0.0\nsamples = 1\nvalue = [0, 0, 0, 0, 0, 1, 0]"] ;
720 -> 722 ;
723 [label="x[3] <= 112.049\ngini = 0.34\nsamples = 23\nvalue = [0, 0, 0, 0, 18, 5, 0]"] ;
711 -> 723 ;
724 [label="x[10] <= 2.5\ngini = 0.375\nsamples = 4\nvalue = [0, 0, 0, 0, 1, 3, 0]"] ;
723 -> 724 ;
725 [label="gini = 0.0\nsamples = 3\nvalue = [0, 0, 0, 0, 0, 3, 0]"] ;
724 -> 725 ;
726 [label="gini = 0.0\nsamples = 1\nvalue = [0, 0, 0, 0, 1, 0, 0]"] ;
724 -> 726 ;
727 [label="x[1] <= 21.53\ngini = 0.188\nsamples = 19\nvalue = [0, 0, 0, 0, 17, 2, 0]"] ;
723 -> 727 ;
728 [label="x[8] <= 2.5\ngini = 0.105\nsamples = 18\nvalue = [0, 0, 0, 0, 17, 1, 0]"] ;
727 -> 728 ;
729 [label="gini = 0.0\nsamples = 17\nvalue = [0, 0, 0, 0, 17, 0, 0]"] ;
728 -> 729 ;
730 [label="gini = 0.0\nsamples = 1\nvalue = [0, 0, 0, 0, 0, 1, 0]"] ;
728 -> 730 ;
731 [label="gini = 0.0\nsamples = 1\nvalue = [0, 0, 0, 0, 0, 1, 0]"] ;
727 -> 731 ;
732 [label="x[10] <= 1.937\ngini = 0.315\nsamples = 69\nvalue = [0.0, 0.0, 0.0, 1.0, 56.0, 11.0, 1.0]"] ;
710 -> 732 ;
733 [label="x[7] <= 2.209\ngini = 0.521\nsamples = 13\nvalue = [0, 0, 0, 0, 4, 8, 1]"] ;
732 -> 733 ;
734 [label="gini = 0.0\nsamples = 7\nvalue = [0, 0, 0, 0, 0, 7, 0]"] ;
733 -> 734 ;
735 [label="x[2] <= 1.762\ngini = 0.5\nsamples = 6\nvalue = [0, 0, 0, 0, 4, 1, 1]"] ;
733 -> 735 ;
736 [label="x[1] <= 21.143\ngini = 0.5\nsamples = 2\nvalue = [0, 0, 0, 0, 0, 1, 1]"] ;
735 -> 736 ;
737 [label="gini = 0.0\nsamples = 1\nvalue = [0, 0, 0, 0, 0, 0, 1]"] ;
736 -> 737 ;
738 [label="gini = 0.0\nsamples = 1\nvalue = [0, 0, 0, 0, 0, 1, 0]"] ;
736 -> 738 ;
739 [label="gini = 0.0\nsamples = 4\nvalue = [0, 0, 0, 0, 4, 0, 0]"] ;
735 -> 739 ;
740 [label="x[3] <= 109.48\ngini = 0.135\nsamples = 56\nvalue = [0, 0, 0, 1, 52, 3, 0]"] ;
732 -> 740 ;
741 [label="x[3] <= 99.74\ngini = 0.072\nsamples = 54\nvalue = [0, 0, 0, 1, 52, 1, 0]"] ;
740 -> 741 ;
742 [label="gini = 0.0\nsamples = 1\nvalue = [0, 0, 0, 1, 0, 0, 0]"] ;
741 -> 742 ;
743 [label="x[2] <= 1.817\ngini = 0.037\nsamples = 53\nvalue = [0, 0, 0, 0, 52, 1, 0]"] ;
741 -> 743 ;
744 [label="gini = 0.0\nsamples = 45\nvalue = [0, 0, 0, 0, 45, 0, 0]"] ;
743 -> 744 ;
745 [label="gini = 0.219\nsamples = 8\nvalue = [0, 0, 0, 0, 7, 1, 0]"] ;
743 -> 745 ;
746 [label="gini = 0.0\nsamples = 2\nvalue = [0, 0, 0, 0, 0, 2, 0]"] ;
740 -> 746 ;
747 [label="x[6] <= 2.008\ngini = 0.362\nsamples = 86\nvalue = [0, 0, 0, 0, 19, 66, 1]"] ;
695 -> 747 ;
748 [label="x[13] <= 1.573\ngini = 0.495\nsamples = 40\nvalue = [0, 0, 0, 0, 18, 22, 0]"] ;
747 -> 748 ;
749 [label="x[1] <= 21.006\ngini = 0.469\nsamples = 32\nvalue = [0, 0, 0, 0, 12, 20, 0]"] ;
748 -> 749 ;
750 [label="x[1] <= 20.993\ngini = 0.499\nsamples = 19\nvalue = [0, 0, 0, 0, 10, 9, 0]"] ;
749 -> 750 ;
751 [label="x[12] <= 0.695\ngini = 0.397\nsamples = 11\nvalue = [0, 0, 0, 0, 3, 8, 0]"] ;
750 -> 751 ;
752 [label="x[13] <= 1.007\ngini = 0.444\nsamples = 3\nvalue = [0, 0, 0, 0, 2, 1, 0]"] ;
751 -> 752 ;
753 [label="gini = 0.0\nsamples = 2\nvalue = [0, 0, 0, 0, 2, 0, 0]"] ;
752 -> 753 ;
754 [label="gini = 0.0\nsamples = 1\nvalue = [0, 0, 0, 0, 0, 1, 0]"] ;
752 -> 754 ;
755 [label="x[2] <= 1.735\ngini = 0.219\nsamples = 8\nvalue = [0, 0, 0, 0, 1, 7, 0]"] ;
751 -> 755 ;
756 [label="gini = 0.0\nsamples = 1\nvalue = [0, 0, 0, 0, 1, 0, 0]"] ;
755 -> 756 ;
757 [label="gini = 0.0\nsamples = 7\nvalue = [0, 0, 0, 0, 0, 7, 0]"] ;
755 -> 757 ;
758 [label="x[2] <= 1.765\ngini = 0.219\nsamples = 8\nvalue = [0, 0, 0, 0, 7, 1, 0]"] ;
750 -> 758 ;
759 [label="x[9] <= 0.5\ngini = 0.5\nsamples = 2\nvalue = [0, 0, 0, 0, 1, 1, 0]"] ;
758 -> 759 ;
760 [label="gini = 0.0\nsamples = 1\nvalue = [0, 0, 0, 0, 1, 0, 0]"] ;
759 -> 760 ;
761 [label="gini = 0.0\nsamples = 1\nvalue = [0, 0, 0, 0, 0, 1, 0]"] ;
759 -> 761 ;
762 [label="gini = 0.0\nsamples = 6\nvalue = [0, 0, 0, 0, 6, 0, 0]"] ;
758 -> 762 ;
763 [label="x[12] <= 2.445\ngini = 0.26\nsamples = 13\nvalue = [0, 0, 0, 0, 2, 11, 0]"] ;
749 -> 763 ;
764 [label="x[13] <= 1.079\ngini = 0.153\nsamples = 12\nvalue = [0, 0, 0, 0, 1, 11, 0]"] ;
763 -> 764 ;
765 [label="gini = 0.0\nsamples = 10\nvalue = [0, 0, 0, 0, 0, 10, 0]"] ;
764 -> 765 ;
766 [label="x[2] <= 1.782\ngini = 0.5\nsamples = 2\nvalue = [0, 0, 0, 0, 1, 1, 0]"] ;
764 -> 766 ;
767 [label="gini = 0.0\nsamples = 1\nvalue = [0, 0, 0, 0, 0, 1, 0]"] ;
766 -> 767 ;
768 [label="gini = 0.0\nsamples = 1\nvalue = [0, 0, 0, 0, 1, 0, 0]"] ;
766 -> 768 ;
769 [label="gini = 0.0\nsamples = 1\nvalue = [0, 0, 0, 0, 1, 0, 0]"] ;
763 -> 769 ;
770 [label="x[3] <= 118.092\ngini = 0.375\nsamples = 8\nvalue = [0, 0, 0, 0, 6, 2, 0]"] ;
748 -> 770 ;
771 [label="gini = 0.0\nsamples = 4\nvalue = [0, 0, 0, 0, 4, 0, 0]"] ;
770 -> 771 ;
772 [label="x[12] <= 0.286\ngini = 0.5\nsamples = 4\nvalue = [0, 0, 0, 0, 2, 2, 0]"] ;
770 -> 772 ;
773 [label="gini = 0.0\nsamples = 2\nvalue = [0, 0, 0, 0, 0, 2, 0]"] ;
772 -> 773 ;
774 [label="gini = 0.0\nsamples = 2\nvalue = [0, 0, 0, 0, 2, 0, 0]"] ;
772 -> 774 ;
775 [label="x[12] <= 2.5\ngini = 0.084\nsamples = 46\nvalue = [0, 0, 0, 0, 1, 44, 1]"] ;
747 -> 775 ;
776 [label="x[12] <= 0.325\ngini = 0.043\nsamples = 45\nvalue = [0, 0, 0, 0, 0, 44, 1]"] ;
775 -> 776 ;
777 [label="x[1] <= 21.77\ngini = 0.375\nsamples = 4\nvalue = [0, 0, 0, 0, 0, 3, 1]"] ;
776 -> 777 ;
778 [label="gini = 0.0\nsamples = 3\nvalue = [0, 0, 0, 0, 0, 3, 0]"] ;
777 -> 778 ;
779 [label="gini = 0.0\nsamples = 1\nvalue = [0, 0, 0, 0, 0, 0, 1]"] ;
777 -> 779 ;
780 [label="gini = 0.0\nsamples = 41\nvalue = [0, 0, 0, 0, 0, 41, 0]"] ;
776 -> 780 ;
781 [label="gini = 0.0\nsamples = 1\nvalue = [0, 0, 0, 0, 1, 0, 0]"] ;
775 -> 781 ;
782 [label="x[3] <= 110.823\ngini = 0.172\nsamples = 3390\nvalue = [1, 0, 0, 16, 302, 3069, 2]"] ;
694 -> 782 ;
783 [label="x[10] <= 2.0\ngini = 0.481\nsamples = 749\nvalue = [0, 0, 0, 15, 263, 471, 0]"] ;
782 -> 783 ;
784 [label="x[6] <= 2.001\ngini = 0.208\nsamples = 460\nvalue = [0, 0, 0, 10, 43, 407, 0]"] ;
783 -> 784 ;
785 [label="x[10] <= 1.01\ngini = 0.549\nsamples = 79\nvalue = [0, 0, 0, 6, 29, 44, 0]"] ;
784 -> 785 ;
786 [label="x[12] <= 0.001\ngini = 0.379\nsamples = 53\nvalue = [0, 0, 0, 1, 12, 40, 0]"] ;
785 -> 786 ;
787 [label="x[1] <= 28.0\ngini = 0.469\nsamples = 8\nvalue = [0, 0, 0, 0, 5, 3, 0]"] ;
786 -> 787 ;
788 [label="x[6] <= 1.5\ngini = 0.278\nsamples = 6\nvalue = [0, 0, 0, 0, 5, 1, 0]"] ;
787 -> 788 ;
789 [label="gini = 0.0\nsamples = 1\nvalue = [0, 0, 0, 0, 0, 1, 0]"] ;
788 -> 789 ;
790 [label="gini = 0.0\nsamples = 5\nvalue = [0, 0, 0, 0, 5, 0, 0]"] ;
788 -> 790 ;
791 [label="gini = 0.0\nsamples = 2\nvalue = [0, 0, 0, 0, 0, 2, 0]"] ;
787 -> 791 ;
792 [label="x[1] <= 33.521\ngini = 0.299\nsamples = 45\nvalue = [0, 0, 0, 1, 7, 37, 0]"] ;
786 -> 792 ;
793 [label="x[3] <= 99.991\ngini = 0.169\nsamples = 33\nvalue = [0, 0, 0, 1, 2, 30, 0]"] ;
792 -> 793 ;
794 [label="gini = 0.0\nsamples = 1\nvalue = [0, 0, 0, 1, 0, 0, 0]"] ;
793 -> 794 ;
795 [label="gini = 0.117\nsamples = 32\nvalue = [0, 0, 0, 0, 2, 30, 0]"] ;
793 -> 795 ;
796 [label="x[7] <= 2.956\ngini = 0.486\nsamples = 12\nvalue = [0, 0, 0, 0, 5, 7, 0]"] ;
792 -> 796 ;
797 [label="gini = 0.469\nsamples = 8\nvalue = [0, 0, 0, 0, 5, 3, 0]"] ;
796 -> 797 ;
798 [label="gini = 0.0\nsamples = 4\nvalue = [0, 0, 0, 0, 0, 4, 0]"] ;
796 -> 798 ;
799 [label="x[12] <= 1.041\ngini = 0.512\nsamples = 26\nvalue = [0, 0, 0, 5, 17, 4, 0]"] ;
785 -> 799 ;
800 [label="x[3] <= 102.274\ngini = 0.265\nsamples = 20\nvalue = [0, 0, 0, 2, 17, 1, 0]"] ;
799 -> 800 ;
801 [label="x[1] <= 25.718\ngini = 0.64\nsamples = 5\nvalue = [0, 0, 0, 2, 2, 1, 0]"] ;
800 -> 801 ;
802 [label="gini = 0.0\nsamples = 2\nvalue = [0, 0, 0, 0, 2, 0, 0]"] ;
801 -> 802 ;
803 [label="gini = 0.444\nsamples = 3\nvalue = [0, 0, 0, 2, 0, 1, 0]"] ;
801 -> 803 ;
804 [label="gini = 0.0\nsamples = 15\nvalue = [0, 0, 0, 0, 15, 0, 0]"] ;
800 -> 804 ;
805 [label="x[7] <= 1.149\ngini = 0.5\nsamples = 6\nvalue = [0, 0, 0, 3, 0, 3, 0]"] ;
799 -> 805 ;
806 [label="gini = 0.0\nsamples = 2\nvalue = [0, 0, 0, 2, 0, 0, 0]"] ;
805 -> 806 ;
807 [label="x[12] <= 1.212\ngini = 0.375\nsamples = 4\nvalue = [0, 0, 0, 1, 0, 3, 0]"] ;
805 -> 807 ;
808 [label="gini = 0.0\nsamples = 1\nvalue = [0, 0, 0, 1, 0, 0, 0]"] ;
807 -> 808 ;
809 [label="gini = 0.0\nsamples = 3\nvalue = [0, 0, 0, 0, 0, 3, 0]"] ;
807 -> 809 ;
810 [label="x[1] <= 22.676\ngini = 0.091\nsamples = 381\nvalue = [0, 0, 0, 4, 14, 363, 0]"] ;
784 -> 810 ;
811 [label="gini = 0.0\nsamples = 2\nvalue = [0, 0, 0, 0, 2, 0, 0]"] ;
810 -> 811 ;
812 [label="x[12] <= 2.41\ngini = 0.082\nsamples = 379\nvalue = [0, 0, 0, 4, 12, 363, 0]"] ;
810 -> 812 ;
813 [label="x[10] <= 1.444\ngini = 0.077\nsamples = 378\nvalue = [0, 0, 0, 4, 11, 363, 0]"] ;
812 -> 813 ;
814 [label="x[1] <= 37.419\ngini = 0.032\nsamples = 313\nvalue = [0, 0, 0, 1, 4, 308, 0]"] ;
813 -> 814 ;
815 [label="gini = 0.02\nsamples = 293\nvalue = [0, 0, 0, 1, 2, 290, 0]"] ;
814 -> 815 ;
816 [label="gini = 0.18\nsamples = 20\nvalue = [0, 0, 0, 0, 2, 18, 0]"] ;
814 -> 816 ;
817 [label="x[6] <= 2.088\ngini = 0.27\nsamples = 65\nvalue = [0, 0, 0, 3, 7, 55, 0]"] ;
813 -> 817 ;
818 [label="gini = 0.625\nsamples = 4\nvalue = [0, 0, 0, 2, 1, 1, 0]"] ;
817 -> 818 ;
819 [label="gini = 0.206\nsamples = 61\nvalue = [0, 0, 0, 1, 6, 54, 0]"] ;
817 -> 819 ;
820 [label="gini = 0.0\nsamples = 1\nvalue = [0, 0, 0, 0, 1, 0, 0]"] ;
812 -> 820 ;
821 [label="x[3] <= 103.921\ngini = 0.371\nsamples = 289\nvalue = [0, 0, 0, 5, 220, 64, 0]"] ;
783 -> 821 ;
822 [label="x[1] <= 34.772\ngini = 0.534\nsamples = 68\nvalue = [0, 0, 0, 5, 23, 40, 0]"] ;
821 -> 822 ;
823 [label="x[6] <= 2.217\ngini = 0.444\nsamples = 55\nvalue = [0, 0, 0, 4, 12, 39, 0]"] ;
822 -> 823 ;
824 [label="x[2] <= 1.69\ngini = 0.582\nsamples = 27\nvalue = [0, 0, 0, 3, 10, 14, 0]"] ;
823 -> 824 ;
825 [label="gini = 0.0\nsamples = 7\nvalue = [0, 0, 0, 0, 0, 7, 0]"] ;
824 -> 825 ;
826 [label="x[1] <= 27.47\ngini = 0.605\nsamples = 20\nvalue = [0, 0, 0, 3, 10, 7, 0]"] ;
824 -> 826 ;
827 [label="gini = 0.462\nsamples = 13\nvalue = [0, 0, 0, 1, 9, 3, 0]"] ;
826 -> 827 ;
828 [label="gini = 0.571\nsamples = 7\nvalue = [0, 0, 0, 2, 1, 4, 0]"] ;
826 -> 828 ;
829 [label="x[12] <= 2.039\ngini = 0.196\nsamples = 28\nvalue = [0, 0, 0, 1, 2, 25, 0]"] ;
823 -> 829 ;
830 [label="x[15] <= 3.0\ngini = 0.137\nsamples = 27\nvalue = [0, 0, 0, 0, 2, 25, 0]"] ;
829 -> 830 ;
831 [label="gini = 0.0\nsamples = 21\nvalue = [0, 0, 0, 0, 0, 21, 0]"] ;
830 -> 831 ;
832 [label="gini = 0.444\nsamples = 6\nvalue = [0, 0, 0, 0, 2, 4, 0]"] ;
830 -> 832 ;
833 [label="gini = 0.0\nsamples = 1\nvalue = [0, 0, 0, 1, 0, 0, 0]"] ;
829 -> 833 ;
834 [label="x[2] <= 1.687\ngini = 0.272\nsamples = 13\nvalue = [0, 0, 0, 1, 11, 1, 0]"] ;
822 -> 834 ;
835 [label="gini = 0.0\nsamples = 1\nvalue = [0, 0, 0, 0, 0, 1, 0]"] ;
834 -> 835 ;
836 [label="x[3] <= 99.796\ngini = 0.153\nsamples = 12\nvalue = [0, 0, 0, 1, 11, 0, 0]"] ;
834 -> 836 ;
837 [label="x[2] <= 1.755\ngini = 0.5\nsamples = 2\nvalue = [0, 0, 0, 1, 1, 0, 0]"] ;
836 -> 837 ;
838 [label="gini = 0.0\nsamples = 1\nvalue = [0, 0, 0, 1, 0, 0, 0]"] ;
837 -> 838 ;
839 [label="gini = 0.0\nsamples = 1\nvalue = [0, 0, 0, 0, 1, 0, 0]"] ;
837 -> 839 ;
840 [label="gini = 0.0\nsamples = 10\nvalue = [0, 0, 0, 0, 10, 0, 0]"] ;
836 -> 840 ;
841 [label="x[3] <= 108.949\ngini = 0.194\nsamples = 221\nvalue = [0, 0, 0, 0, 197, 24, 0]"] ;
821 -> 841 ;
842 [label="x[3] <= 105.983\ngini = 0.151\nsamples = 207\nvalue = [0, 0, 0, 0, 190, 17, 0]"] ;
841 -> 842 ;
843 [label="x[7] <= 1.978\ngini = 0.057\nsamples = 136\nvalue = [0, 0, 0, 0, 132, 4, 0]"] ;
842 -> 843 ;
844 [label="x[10] <= 2.33\ngini = 0.5\nsamples = 6\nvalue = [0, 0, 0, 0, 3, 3, 0]"] ;
843 -> 844 ;
845 [label="gini = 0.0\nsamples = 3\nvalue = [0, 0, 0, 0, 3, 0, 0]"] ;
844 -> 845 ;
846 [label="gini = 0.0\nsamples = 3\nvalue = [0, 0, 0, 0, 0, 3, 0]"] ;
844 -> 846 ;
847 [label="x[6] <= 1.945\ngini = 0.015\nsamples = 130\nvalue = [0, 0, 0, 0, 129, 1, 0]"] ;
843 -> 847 ;
848 [label="gini = 0.5\nsamples = 2\nvalue = [0, 0, 0, 0, 1, 1, 0]"] ;
847 -> 848 ;
849 [label="gini = 0.0\nsamples = 128\nvalue = [0, 0, 0, 0, 128, 0, 0]"] ;
847 -> 849 ;
850 [label="x[6] <= 2.273\ngini = 0.299\nsamples = 71\nvalue = [0, 0, 0, 0, 58, 13, 0]"] ;
842 -> 850 ;
851 [label="x[2] <= 1.864\ngini = 0.163\nsamples = 56\nvalue = [0, 0, 0, 0, 51, 5, 0]"] ;
850 -> 851 ;
852 [label="gini = 0.135\nsamples = 55\nvalue = [0, 0, 0, 0, 51, 4, 0]"] ;
851 -> 852 ;
853 [label="gini = 0.0\nsamples = 1\nvalue = [0, 0, 0, 0, 0, 1, 0]"] ;
851 -> 853 ;
854 [label="x[1] <= 23.123\ngini = 0.498\nsamples = 15\nvalue = [0, 0, 0, 0, 7, 8, 0]"] ;
850 -> 854 ;
855 [label="gini = 0.0\nsamples = 3\nvalue = [0, 0, 0, 0, 3, 0, 0]"] ;
854 -> 855 ;
856 [label="gini = 0.444\nsamples = 12\nvalue = [0, 0, 0, 0, 4, 8, 0]"] ;
854 -> 856 ;
857 [label="x[3] <= 109.946\ngini = 0.5\nsamples = 14\nvalue = [0, 0, 0, 0, 7, 7, 0]"] ;
841 -> 857 ;
858 [label="x[10] <= 2.073\ngini = 0.245\nsamples = 7\nvalue = [0, 0, 0, 0, 1, 6, 0]"] ;
857 -> 858 ;
859 [label="gini = 0.0\nsamples = 5\nvalue = [0, 0, 0, 0, 0, 5, 0]"] ;
858 -> 859 ;
860 [label="x[13] <= 0.556\ngini = 0.5\nsamples = 2\nvalue = [0, 0, 0, 0, 1, 1, 0]"] ;
858 -> 860 ;
861 [label="gini = 0.0\nsamples = 1\nvalue = [0, 0, 0, 0, 1, 0, 0]"] ;
860 -> 861 ;
862 [label="gini = 0.0\nsamples = 1\nvalue = [0, 0, 0, 0, 0, 1, 0]"] ;
860 -> 862 ;
863 [label="x[13] <= 0.958\ngini = 0.245\nsamples = 7\nvalue = [0, 0, 0, 0, 6, 1, 0]"] ;
857 -> 863 ;
864 [label="gini = 0.0\nsamples = 6\nvalue = [0, 0, 0, 0, 6, 0, 0]"] ;
863 -> 864 ;
865 [label="gini = 0.0\nsamples = 1\nvalue = [0, 0, 0, 0, 0, 1, 0]"] ;
863 -> 865 ;
866 [label="x[12] <= 2.583\ngini = 0.032\nsamples = 2641\nvalue = [1, 0, 0, 1, 39, 2598, 2]"] ;
782 -> 866 ;
867 [label="x[11] <= 0.5\ngini = 0.03\nsamples = 2637\nvalue = [1, 0, 0, 1, 36, 2597, 2]"] ;
866 -> 867 ;
868 [label="x[3] <= 131.131\ngini = 0.028\nsamples = 2630\nvalue = [1.0, 0.0, 0.0, 1.0, 33.0, 2593.0, 2.0]"] ;
867 -> 868 ;
869 [label="x[13] <= 1.89\ngini = 0.027\nsamples = 2629\nvalue = [1, 0, 0, 1, 32, 2593, 2]"] ;
868 -> 869 ;
870 [label="x[7] <= 3.984\ngini = 0.024\nsamples = 2592\nvalue = [1, 0, 0, 1, 27, 2561, 2]"] ;
869 -> 870 ;
871 [label="x[8] <= 2.5\ngini = 0.023\nsamples = 2590\nvalue = [0, 0, 0, 1, 27, 2560, 2]"] ;
870 -> 871 ;
872 [label="gini = 0.022\nsamples = 2587\nvalue = [0.0, 0.0, 0.0, 1.0, 26.0, 2558.0, 2.0]"] ;
871 -> 872 ;
873 [label="gini = 0.444\nsamples = 3\nvalue = [0, 0, 0, 0, 1, 2, 0]"] ;
871 -> 873 ;
874 [label="x[12] <= 1.581\ngini = 0.5\nsamples = 2\nvalue = [1, 0, 0, 0, 0, 1, 0]"] ;
870 -> 874 ;
875 [label="gini = 0.0\nsamples = 1\nvalue = [0, 0, 0, 0, 0, 1, 0]"] ;
874 -> 875 ;
876 [label="gini = 0.0\nsamples = 1\nvalue = [1, 0, 0, 0, 0, 0, 0]"] ;
874 -> 876 ;
877 [label="x[13] <= 1.895\ngini = 0.234\nsamples = 37\nvalue = [0, 0, 0, 0, 5, 32, 0]"] ;
869 -> 877 ;
878 [label="gini = 0.0\nsamples = 2\nvalue = [0, 0, 0, 0, 2, 0, 0]"] ;
877 -> 878 ;
879 [label="x[15] <= 1.5\ngini = 0.157\nsamples = 35\nvalue = [0, 0, 0, 0, 3, 32, 0]"] ;
877 -> 879 ;
880 [label="gini = 0.0\nsamples = 1\nvalue = [0, 0, 0, 0, 1, 0, 0]"] ;
879 -> 880 ;
881 [label="gini = 0.111\nsamples = 34\nvalue = [0, 0, 0, 0, 2, 32, 0]"] ;
879 -> 881 ;
882 [label="gini = 0.0\nsamples = 1\nvalue = [0, 0, 0, 0, 1, 0, 0]"] ;
868 -> 882 ;
883 [label="x[1] <= 23.5\ngini = 0.49\nsamples = 7\nvalue = [0, 0, 0, 0, 3, 4, 0]"] ;
867 -> 883 ;
884 [label="gini = 0.0\nsamples = 2\nvalue = [0, 0, 0, 0, 2, 0, 0]"] ;
883 -> 884 ;
885 [label="x[15] <= 3.0\ngini = 0.32\nsamples = 5\nvalue = [0, 0, 0, 0, 1, 4, 0]"] ;
883 -> 885 ;
886 [label="gini = 0.0\nsamples = 4\nvalue = [0, 0, 0, 0, 0, 4, 0]"] ;
885 -> 886 ;
887 [label="gini = 0.0\nsamples = 1\nvalue = [0, 0, 0, 0, 1, 0, 0]"] ;
885 -> 887 ;
888 [label="x[15] <= 1.5\ngini = 0.375\nsamples = 4\nvalue = [0, 0, 0, 0, 3, 1, 0]"] ;
866 -> 888 ;
889 [label="gini = 0.0\nsamples = 1\nvalue = [0, 0, 0, 0, 0, 1, 0]"] ;
888 -> 889 ;
890 [label="gini = 0.0\nsamples = 3\nvalue = [0, 0, 0, 0, 3, 0, 0]"] ;
888 -> 890 ;
}
